
\data\
ngram 1=1981
ngram 2=33608
ngram 3=29737

\1-grams:
-4.832695	!	-0.4319914
-1.157192	%	-2.805542
-4.929605	&	-0.6130511
-4.276393	'	-1.278076
-3.628575	,	-0.7837782
-2.133725	-	-1.110699
-3.768237	.	-1.531669
-5.531665	/	-0.280633
-5.531665	0	-0.3263019
-4.753514	1	-0.4500651
-4.832695	2	-0.7760697
-4.832695	3	-0.7757593
-5.531665	5	-0.3182841
-5.531665	6	-0.3263006
-5.230635	9	-0.2947891
-1.000787	</s>
-99	<s>	-1.282402
-5.229865	<unk>
-3.358479	?	-1.825143
-5.531665	[	-0.280633
-5.531665	]	-0.294958
-2.512134	a	-1.615423
-3.17564	b	-1.518398
-3.106784	c	-1.609663
-3.135466	d	-1.013414
-2.718752	e	-1.301794
-3.445306	f	-1.293691
-3.205329	g	-1.324621
-2.990086	h	-1.277914
-2.858644	i	-1.43766
-4.209446	j	-1.152684
-2.93397	k	-1.295212
-2.92421	l	-1.143121
-3.355574	m	-1.143649
-2.813995	n	-1.220885
-2.599699	o	-1.626902
-3.303779	p	-1.326698
-4.276393	q	-1.039652
-2.752069	r	-1.602889
-2.951882	s	-1.251104
-2.795269	t	-1.252436
-3.019782	u	-1.543856
-3.388651	v	-1.123685
-3.77579	w	-0.994291
-4.189243	x	-0.6290089
-2.980215	y	-1.208324
-4.577423	z	-0.6117414
-3.118366	~	-0.3287116
-5.531665	’	-0.3258177
-5.531665	…	-0.294958
-5.531665	　	-0.326118
-3.824095	、	-0.3419325
-1.221546	。	-2.527196
-1.846551	一	-1.415509
-4.531665	丁	-0.9950682
-3.228469	七	-1.098453
-3.699157	万	-0.6212516
-2.806571	三	-1.122635
-2.626409	上	-0.6205817
-2.636796	下	-0.8543942
-2.260987	不	-1.173195
-5.230635	与	-0.3259455
-4.151454	专	-0.9896354
-3.53603	且	-0.5999983
-3.567878	世	-1.412006
-3.680407	业	-0.5482099
-3.193209	东	-1.227117
-5.230635	丝	-0.2949553
-4.577423	丢	-0.4937124
-2.866084	两	-1.049283
-4.276393	严	-0.4086699
-1.6687	个	-0.4889475
-2.804124	中	-1.182082
-4.327545	丰	-0.9826214
-3.841469	串	-0.4639297
-4.753514	临	-0.4214279
-5.230635	丸	-0.4608132
-4.169938	丹	-0.8353882
-2.711464	为	-0.7538741
-3.53603	主	-1.037714
-4.929605	丽	-0.3556678
-4.452484	举	-0.6130956
-4.832695	乃	-0.7760569
-3.929605	久	-0.2950585
-2.470968	么	-0.4959854
-4.753514	义	-0.4045502
-3.063318	之	-1.441272
-3.431295	乌	-1.878033
-4.753514	乎	-0.3203202
-3.394945	乐	-0.8347304
-5.531665	乖	-0.3161276
-3.888213	乘	-0.6413903
-3.452484	九	-0.8579842
-2.497037	也	-1.143119
-4.040304	习	-0.8790481
-4.686567	乡	-0.472835
-4.832695	书	-0.2839436
-3.027875	买	-0.7580128
-4.355574	乱	-0.5825676
-2.376633	了	-0.8637379
-5.230635	予	-0.3256822
-5.531665	争	-0.3262955
-3.888213	事	-0.6057174
-2.98884	二	-1.033819
-3.502282	于	-0.4144106
-5.531665	亏	-0.2994117
-4.929605	云	-0.4611635
-5.054544	互	-0.4111742
-2.854972	五	-1.268851
-5.054544	井	-0.3022575
-3.482447	亚	-0.4054094
-2.491063	些	-0.4260149
-5.531665	亡	-0.3161276
-3.549394	交	-1.07683
-5.531665	亦	-0.3261282
-3.791303	产	-0.4211854
-4.686567	享	-0.447128
-4.452484	京	-0.3784934
-5.054544	亭	-0.2907825
-3.617851	亮	-0.7899604
-4.169938	亲	-0.82845
-2.422762	人	-0.6869791
-2.692816	什	-2.545523
-5.531665	仁	-0.3263006
-5.531665	仅	-0.3259033
-4.209446	今	-1.065256
-3.311557	介	-2.080553
-2.987597	从	-0.7247648
-4.929605	仓	-0.2666829
-5.054544	仔	-0.4115791
-2.706239	他	-0.782872
-4.301217	付	-0.45146
-5.531665	仙	-0.3236521
-3.558537	代	-1.040126
-2.215695	以	-0.7944027
-4.628575	仪	-0.4226238
-2.22076	们	-0.9083236
-4.355574	仰	-0.4497182
-4.452484	件	-0.4227639
-3.269214	价	-0.9172993
-4.686567	任	-0.5097459
-3.540439	份	-0.4198166
-4.327545	伊	-0.621105
-5.531665	伍	-0.3263019
-4.133725	休	-0.7917827
-4.327545	众	-0.4847561
-4.355574	优	-0.8523537
-4.628575	伙	-0.9542298
-2.589161	会	-0.5822783
-4.686567	伞	-0.2772405
-5.531665	伟	-0.3040648
-4.276393	传	-0.7160934
-4.628575	伤	-0.2426775
-4.385537	伯	-0.5208777
-4.929605	估	-0.5819845
-4.531665	伴	-1.024517
-4.040304	似	-0.4287983
-3.296137	但	-1.735651
-3.799272	位	-0.3868797
-4.452484	低	-0.5926175
-3.034736	住	-0.9252754
-4.054544	体	-0.4415909
-4.929605	何	-0.316654
-4.577423	余	-0.6659927
-3.668343	佛	-0.9587757
-3.699157	作	-0.3127372
-1.910905	你	-1.036831
-5.054544	佳	-0.7760229
-3.898197	使	-1.247371
-5.531665	侄	-0.3256234
-4.490273	例	-0.3773813
-4.490273	供	-0.475506
-4.929605	侣	-0.2912048
-4.628575	侧	-0.9532161
-4.753514	侨	-0.4948367
-5.531665	侯	-0.315556
-5.531665	侵	-0.3261844
-3.137214	便	-0.7424481
-4.686567	促	-0.7369713
-5.531665	俄	-0.3262036
-4.301217	俗	-0.2608368
-3.859567	保	-0.8236772
-4.013152	信	-0.6033839
-5.054544	俭	-0.3840021
-4.832695	修	-0.3133468
-5.531665	俯	-0.3262393
-4.832695	俱	-0.7759025
-4.832695	倍	-0.3012617
-4.355574	倒	-1.083272
-5.531665	倘	-0.3262981
-3.14785	候	-0.5571915
-5.054544	借	-0.3180213
-5.531665	倡	-0.3177102
-3.987597	值	-0.7585641
-4.929605	倾	-0.5255777
-3.760813	假	-0.618515
-4.531665	偏	-0.4374042
-3.001466	做	-0.5213664
-3.963464	停	-0.3564457
-4.753514	健	-0.5464231
-4.577423	偶	-0.7654166
-5.230635	傅	-0.316705
-4.686567	储	-0.5142307
-2.815662	像	-0.4602044
-5.531665	僧	-0.3246594
-5.531665	儒	-0.3260439
-4.026515	儿	-0.4202586
-4.531665	允	-1.041379
-3.486342	元	-0.6436589
-5.230635	兄	-0.3182828
-4.628575	充	-0.5497716
-5.531665	兆	-0.3040648
-3.46348	先	-0.5192068
-3.908416	光	-0.4111551
-3.975363	克	-0.8390626
-3.753514	免	-1.410705
-4.417722	兑	-1.145966
-5.531665	党	-0.3262431
-5.054544	兜	-0.7698026
-3.563182	入	-0.6792081
-3.544894	全	-0.5675259
-3.153267	八	-1.037984
-2.912572	公	-1.33284
-3.086061	六	-0.9157499
-3.246108	兰	-1.272965
-3.77579	共	-0.6802047
-3.674333	关	-0.6636475
-3.963464	兴	-0.7370695
-4.832695	兵	-0.7760097
-3.08762	其	-1.709422
-4.133725	具	-0.1686003
-5.531665	典	-0.3262125
-5.531665	兹	-0.3251692
-4.385537	养	-0.3031585
-5.531665	兼	-0.3262981
-3.639571	内	-0.3949137
-3.113364	再	-0.7893906
-5.230635	冒	-0.3040406
-4.252912	写	-0.3560636
-5.531665	军	-0.294958
-4.417722	农	-0.931522
-4.628575	冬	-0.530094
-5.230635	冰	-0.3258203
-4.531665	冲	-0.4656446
-5.054544	决	-0.4095724
-4.116692	况	-0.4803751
-4.577423	冷	-0.3058019
-5.531665	冻	-0.3161276
-4.069267	净	-0.7478836
-4.116692	准	-0.6965617
-4.417722	凉	-0.4935617
-5.531665	凌	-0.3263006
-5.230635	减	-0.4612592
-3.32215	几	-0.9311664
-5.230635	凡	-0.4507459
-4.686567	凤	-0.7638596
-5.230635	凭	-0.3175265
-5.531665	凰	-0.3262176
-5.531665	凶	-0.3263006
-3.043115	出	-1.113131
-5.054544	击	-0.3247644
-2.88233	分	-0.6775935
-4.628575	切	-0.4105542
-4.686567	刑	-0.4093036
-3.898197	划	-0.4143708
-4.577423	列	-1.276722
-4.753514	则	-0.3063754
-3.103531	刚	-0.830058
-5.230635	创	-0.3243504
-4.452484	初	-0.3806066
-5.531665	判	-0.2994117
-4.116692	利	-0.605369
-3.271594	别	-0.6369926
-2.261452	到	-0.8502418
-3.791303	制	-0.4657432
-4.531665	刷	-0.6231035
-5.054544	券	-0.2879229
-4.100302	刹	-0.491671
-4.189243	刺	-0.6384687
-5.054544	刻	-0.3199145
-5.054544	削	-0.4113658
-3.237199	前	-0.5339872
-3.940601	剧	-1.014288
-4.832695	剩	-0.4749008
-5.531665	剪	-0.3263019
-5.230635	副	-0.320853
-4.490273	力	-0.4116629
-5.531665	劝	-0.3262661
-3.656604	办	-0.5440884
-5.230635	功	-0.4611033
-2.404561	加	-1.605616
-4.169938	务	-0.4347949
-3.093915	动	-1.079796
-4.209446	助	-0.3755631
-4.628575	励	-0.3440752
-4.000186	劳	-1.042617
-5.531665	势	-0.3252076
-5.230635	勃	-0.2927829
-5.531665	勇	-0.3263006
-5.531665	勒	-0.3260848
-5.230635	勤	-0.4614713
-3.361404	包	-0.7440069
-5.531665	匆	-0.3262763
-3.940601	化	-0.5003665
-3.699157	北	-1.173401
-5.230635	匙	-0.2949525
-3.17564	区	-0.7711029
-4.490273	医	-0.4448813
-4.577423	匿	-0.9996768
-2.559463	十	-1.304575
-3.732325	千	-0.6711307
-4.753514	升	-0.4207995
-3.732325	午	-0.5612432
-3.44176	半	-0.6483119
-3.16431	华	-1.425095
-5.531665	协	-0.3251832
-4.054544	卓	-1.491323
-3.824095	单	-0.5864556
-3.459783	卖	-0.4104962
-3.241631	南	-0.7007738
-4.013152	博	-1.539977
-4.577423	卜	-0.755108
-4.753514	占	-0.5445996
-3.692816	卡	-0.6752118
-5.531665	卤	-0.3259033
-4.929605	卦	-0.2813005
-5.230635	卧	-0.3230377
-4.686567	卫	-1.139732
-3.181417	印	-1.693483
-4.417722	危	-1.146092
-4.832695	即	-0.5385744
-5.531665	却	-0.3230994
-5.531665	卷	-0.3261116
-4.753514	厂	-0.3976483
-3.712121	厅	-0.4393454
-3.739274	历	-1.070462
-5.054544	厉	-0.4058389
-5.230635	压	-0.4614789
-4.577423	厕	-0.6517939
-5.230635	厚	-0.4513174
-3.753514	原	-1.04907
-4.133725	厢	-0.4047424
-3.77579	厦	-1.046239
-5.230635	厨	-0.4614674
-2.488696	去	-0.6335208
-3.859567	参	-1.000557
-3.544894	又	-0.562149
-5.230635	叉	-0.460519
-4.686567	及	-0.281612
-3.768237	友	-0.3763767
-4.531665	双	-0.7625315
-4.151454	反	-0.789525
-3.868907	发	-0.4246103
-4.753514	取	-0.2831955
-3.929605	受	-0.4391734
-3.686567	变	-1.255025
-3.602247	口	-0.6516437
-4.054544	古	-0.8476452
-5.054544	句	-0.3188962
-3.577423	另	-1.772462
-3.16431	只	-0.9827459
-2.70754	叫	-0.6761578
-2.329995	可	-2.283772
-3.70559	台	-0.6690657
-3.753514	史	-0.3957148
-3.582275	右	-0.8415859
-3.951882	叶	-0.642293
-3.567878	号	-0.6666678
-4.276393	司	-0.3155905
-5.531665	叻	-0.325796
-2.812334	吃	-0.7420441
-3.602247	各	-1.145173
-3.46348	合	-0.4508087
-4.628575	吉	-0.5357099
-4.490273	吊	-0.6611397
-3.478587	同	-0.7089807
-3.128545	名	-0.9854588
-2.328905	后	-0.7305362
-4.452484	吐	-0.8943349
-4.069267	向	-0.3631235
-5.230635	吓	-0.3239141
-2.506769	吗	-2.222406
-5.531665	吞	-0.3261116
-5.531665	否	-0.3262993
-2.859567	吧	-1.478199
-5.531665	吨	-0.3262687
-4.040304	含	-0.7531464
-3.401332	听	-1.125031
-5.054544	启	-0.7756805
-5.230635	吵	-0.3253163
-5.531665	吶	-0.2994117
-3.878453	吸	-1.360171
-4.686567	吹	-0.3573478
-5.230635	吾	-0.461461
-3.597167	呀	-0.9309122
-1.612797	呃	-0.572336
-4.355574	呆	-0.4656445
-5.531665	呈	-0.3257691
-4.230635	告	-0.7043068
-5.531665	呗	-0.3040648
-4.133725	员	-0.3814231
-2.519672	呢	-1.577927
-3.753514	周	-0.7367409
-3.662434	味	-0.7939261
-2.265669	呵	-1.853022
-4.209446	呼	-1.104389
-4.276393	命	-0.9107908
-3.908416	和	-0.2582948
-4.531665	咕	-1.022618
-4.069267	咖	-1.76127
-4.151454	咦	-0.5070369
-5.230635	咧	-0.2932791
-4.929605	咨	-0.5256032
-5.230635	咬	-0.3246491
-3.898197	咯	-1.34488
-4.577423	咱	-0.9973798
-4.628575	咳	-0.6231511
-4.531665	咸	-0.5899508
-5.531665	咿	-0.294958
-3.32484	品	-0.6683919
-3.510476	哇	-1.075142
-4.832695	哈	-0.2824481
-4.252912	响	-0.811823
-3.753514	哎	-1.061981
-5.531665	哗	-0.3161276
-1.803149	哦	-1.136117
-3.269214	哪	-1.184108
-5.531665	哼	-0.3040648
-4.385537	唇	-1.176067
-2.813995	唉	-0.9867144
-3.768237	唐	-2.084872
-4.753514	售	-0.4418643
-5.054544	唯	-0.7698026
-4.417722	唱	-1.04406
-5.531665	唷	-0.3209383
-4.929605	啄	-0.5255853
-3.431295	商	-1.318672
-1.737666	啊	-0.9831166
-5.054544	啡	-0.3245158
-4.531665	啤	-1.040834
-2.579842	啦	-1.637803
-3.824095	喂	-1.073771
-5.531665	善	-0.3263006
-5.230635	喉	-0.3203821
-5.531665	喔	-0.2994117
-3.407814	喜	-1.756684
-3.602247	喝	-0.6603333
-5.531665	喧	-0.3263019
-4.116692	喱	-0.3657529
-3.783477	喷	-1.302295
-1.851783	嗯	-1.623108
-4.753514	嗽	-0.9124221
-5.531665	嘀	-0.294958
-2.812334	嘛	-1.576952
-4.832695	嘞	-0.4271753
-4.189243	嘴	-1.188269
-4.628575	嘿	-0.5102333
-4.628575	噜	-0.9120638
-5.531665	噢	-0.294958
-4.628575	器	-0.2517289
-4.230635	噪	-1.322149
-2.908416	四	-0.943586
-3.276393	回	-0.759099
-2.8025	因	-1.995379
-3.908416	团	-0.3551862
-2.837938	园	-0.8132876
-5.230635	困	-0.4614598
-4.252912	围	-0.3761012
-4.385537	固	-1.471896
-2.928521	国	-0.6545742
-3.327545	图	-0.9210956
-5.054544	圃	-0.2692284
-4.753514	圆	-0.5461315
-4.084507	圈	-0.3552853
-3.783477	土	-0.7921542
-3.151454	圣	-1.509809
-2.218853	在	-0.6252202
-2.449599	地	-1.159966
-2.956478	场	-0.6708543
-4.577423	圾	-0.4239192
-4.929605	址	-0.2643523
-4.355574	均	-0.4707555
-4.385537	坊	-0.2897401
-5.054544	坏	-0.3997476
-2.971759	坐	-0.7912174
-2.786591	块	-1.110519
-4.531665	坝	-0.3412032
-5.054544	坞	-0.2817422
-5.054544	坠	-0.7753507
-2.433714	坡	-0.6889566
-5.531665	坦	-0.3262355
-5.230635	坪	-0.30336
-4.577423	垃	-0.9999885
-3.898197	型	-0.765944
-5.531665	垒	-0.3182841
-4.753514	埃	-0.6600399
-3.248364	城	-0.9296687
-4.832695	域	-0.2498071
-4.084507	基	-0.8651932
-4.116692	堂	-0.821211
-5.230635	堆	-0.2927829
-4.832695	堡	-0.2803067
-5.054544	堤	-0.3610161
-4.753514	堵	-0.9118816
-4.929605	塑	-0.3610591
-4.355574	塔	-0.4063042
-4.577423	填	-0.6191168
-4.026515	境	-0.305739
-4.577423	墅	-0.4869239
-5.230635	墙	-0.4614866
-4.628575	增	-0.5654058
-4.832695	墨	-0.7756226
-4.832695	壁	-0.3040367
-5.230635	壤	-0.4392546
-3.283692	士	-0.6752521
-4.628575	壮	-0.6325374
-3.760813	声	-1.00632
-5.054544	壳	-0.3512881
-5.531665	壶	-0.3260656
-3.963464	处	-0.4430998
-4.276393	备	-0.3004213
-4.577423	复	-0.6761034
-4.151454	夏	-1.140407
-5.230635	夕	-0.2840112
-3.17564	外	-0.6528661
-2.5321	多	-0.6154693
-3.414394	夜	-0.8904074
-3.807389	够	-0.3361478
-2.53867	大	-1.005022
-2.804124	天	-0.6637794
-3.376329	太	-0.5979092
-4.276393	夫	-0.9161392
-5.531665	央	-0.3262176
-4.686567	失	-0.5911672
-3.115025	头	-0.6203432
-5.230635	夷	-0.4613946
-4.929605	夸	-0.5254883
-4.327545	奇	-0.5777062
-4.929605	奈	-0.6053596
-4.628575	奉	-0.341439
-5.230635	奔	-0.4614904
-3.732325	套	-0.5856135
-4.013152	女	-0.6519256
-4.209446	奶	-0.925801
-3.868907	她	-0.4935531
-2.369998	好	-1.170759
-2.539112	如	-1.628662
-5.054544	妃	-0.2707285
-4.832695	妇	-0.4988107
-3.791303	妈	-1.04728
-5.531665	妥	-0.3261435
-5.531665	妨	-0.3251589
-4.000186	妳	-0.3708305
-3.783477	始	-0.4409779
-4.417722	姐	-0.2799215
-5.230635	姑	-0.316125
-4.832695	姓	-0.3119353
-4.385537	姜	-0.4316976
-4.686567	姬	-1.139574
-4.686567	姿	-0.2943455
-5.230635	娃	-0.3251564
-3.975363	娘	-1.293092
-4.490273	娜	-0.3991068
-3.987597	娱	-1.866991
-5.054544	婚	-0.2938298
-5.531665	婴	-0.3262623
-5.531665	媒	-0.3262649
-5.531665	嫌	-0.3262993
-2.805754	子	-0.6917866
-4.577423	孔	-0.9999885
-5.230635	孕	-0.4614866
-3.612587	字	-0.5703672
-5.230635	存	-0.3196113
-4.628575	孙	-0.9542323
-5.230635	孝	-0.3259941
-4.026515	季	-0.4804522
-3.832695	学	-0.6975527
-3.50636	孩	-0.7967049
-2.321347	它	-0.8447847
-3.963464	宅	-0.950619
-4.452484	宇	-0.4167503
-4.929605	守	-0.3771861
-3.540439	安	-0.9013411
-3.791303	完	-0.548107
-4.452484	宏	-0.6210037
-4.753514	宗	-0.7759169
-4.832695	官	-0.5270096
-3.327545	定	-0.5463255
-3.62318	宜	-0.7093475
-4.490273	宝	-0.3238381
-3.391786	实	-0.5373362
-3.398126	客	-0.482886
-5.531665	宣	-0.3262687
-3.850424	室	-0.9170632
-4.417722	宫	-0.4118369
-4.929605	害	-0.3509099
-5.531665	宴	-0.294958
-4.686567	宵	-0.4497174
-3.224169	家	-0.4835888
-4.116692	容	-0.7251126
-5.054544	宽	-0.315832
-4.116692	宾	-0.6488899
-4.230635	宿	-0.5767759
-4.686567	寄	-0.4726114
-4.929605	密	-0.3553219
-4.355574	富	-0.8115437
-4.929605	寓	-0.3026895
-4.753514	察	-0.4802985
-5.531665	寡	-0.2994117
-5.230635	寸	-0.4614215
-2.265904	对	-1.267567
-3.824095	寺	-0.9253808
-5.230635	寻	-0.3026811
-4.069267	导	-1.224106
-5.054544	寿	-0.411523
-4.628575	封	-0.6013823
-4.531665	射	-0.3010693
-4.577423	将	-0.4038327
-5.054544	尊	-0.7759961
-2.754239	小	-0.9556203
-3.271594	少	-0.5321331
-4.133725	尔	-0.627531
-5.531665	尖	-0.326284
-5.531665	尘	-0.3262955
-4.686567	尚	-0.3769058
-3.77579	尝	-0.6778631
-5.230635	尤	-0.4611379
-1.879709	就	-1.132878
-5.054544	尺	-0.3251473
-3.807389	尼	-0.4838511
-4.417722	尽	-1.036944
-3.067772	尾	-1.591734
-5.230635	局	-0.3036103
-3.841469	层	-0.7337249
-4.252912	居	-0.7128046
-3.951882	屋	-0.6635298
-4.133725	展	-0.3990083
-3.832695	属	-1.542889
-5.531665	屠	-0.3262993
-5.531665	履	-0.3182841
-3.645175	山	-0.6063726
-4.040304	屿	-0.3601491
-3.963464	岁	-0.4222389
-4.753514	岂	-0.6555838
-2.972957	岛	-0.8482565
-4.417722	岸	-0.3708393
-4.151454	峡	-0.6317974
-5.230635	峰	-0.4614061
-5.054544	崎	-0.7757611
-4.327545	川	-0.7515043
-4.169938	州	-0.1935918
-3.577423	工	-1.253164
-3.549394	左	-1.167255
-5.230635	巧	-0.461447
-4.686567	巨	-0.5132235
-3.44176	差	-1.042142
-3.50636	己	-0.4538912
-3.753514	已	-1.297503
-3.228469	巴	-1.069192
-5.230635	巷	-0.317129
-5.531665	巾	-0.3259276
-3.054544	币	-0.673173
-3.269214	市	-0.9804113
-4.100302	布	-0.7644376
-4.230635	师	-0.4450157
-4.417722	希	-1.146108
-5.531665	帐	-0.294958
-3.179483	带	-0.5328404
-4.832695	席	-0.4013467
-3.908416	帮	-1.233014
-2.968184	常	-0.506013
-5.230635	帽	-0.4608132
-5.531665	幅	-0.3260988
-4.355574	幕	-0.9226201
-3.518828	干	-0.72486
-3.523065	平	-1.056007
-3.183361	年	-0.5654845
-5.230635	并	-0.288578
-5.531665	幸	-0.3262227
-5.531665	幼	-0.3262623
-4.753514	幽	-0.28012
-3.878453	广	-1.125236
-5.531665	庄	-0.3262687
-4.452484	庆	-0.3143457
-4.301217	床	-0.9530305
-4.686567	库	-0.2665827
-3.237199	应	-2.069007
-3.746336	底	-0.9006875
-2.805754	店	-0.6787555
-3.597167	庙	-0.6728191
-4.084507	府	-0.2727002
-3.125125	度	-0.6195785
-3.656604	座	-0.5830097
-4.832695	庭	-0.3453856
-5.531665	康	-0.3205413
-4.832695	廉	-0.7758437
-4.686567	廊	-0.453064
-3.349822	建	-0.8620176
-3.11171	开	-0.8241717
-5.054544	异	-0.32299
-4.753514	弄	-0.3150899
-3.645175	式	-0.7206112
-4.355574	引	-0.3821628
-5.054544	弛	-0.7756384
-5.531665	弟	-0.2994117
-3.53603	张	-0.3908889
-4.832695	弯	-0.4182784
-4.832695	强	-0.2526377
-4.832695	归	-0.3709409
-3.434755	当	-1.003641
-5.230635	录	-0.2987047
-3.553942	形	-0.8350977
-4.832695	彩	-0.237083
-3.273987	影	-1.022806
-3.963464	往	-0.540235
-5.230635	征	-0.3242157
-5.230635	径	-0.285715
-4.385537	待	-0.7386749
-2.494637	很	-1.064346
-4.753514	律	-0.3633818
-5.531665	徐	-0.294958
-4.327545	徒	-0.4644246
-2.985123	得	-0.5264782
-5.054544	循	-0.7759003
-3.898197	微	-1.020552
-3.859567	德	-1.574992
-4.929605	徽	-0.2566492
-3.264494	心	-0.8506331
-4.355574	必	-0.8509449
-5.531665	忌	-0.3263019
-5.531665	忍	-0.3239154
-3.725485	志	-0.7645425
-4.686567	忘	-0.4999092
-4.209446	忙	-0.6327202
-5.531665	忧	-0.3239411
-3.692816	快	-0.5470104
-3.617851	念	-0.9027185
-5.531665	怀	-0.3205361
-4.209446	态	-0.4470974
-3.235	怎	-1.993373
-4.301217	怕	-0.3431916
-5.054544	怖	-0.2403338
-5.531665	怜	-0.3263019
-3.878453	思	-0.6499027
-4.301217	怡	-0.801241
-5.230635	急	-0.3254533
-3.951882	性	-0.6678647
-5.531665	怨	-0.3262521
-4.577423	怪	-0.2216075
-3.987597	总	-0.6631718
-4.417722	恐	-1.036792
-5.531665	恢	-0.3262917
-4.832695	恤	-0.3215143
-5.230635	恩	-0.3146468
-4.628575	息	-0.3285023
-5.531665	恰	-0.3244466
-4.929605	悉	-0.2386825
-5.230635	悠	-0.4614713
-5.531665	患	-0.3210598
-4.169938	您	-0.324603
-5.230635	悬	-0.3262087
-5.531665	悯	-0.3161276
-3.799272	情	-0.6438607
-4.929605	惊	-0.6117406
-4.452484	惠	-0.3684645
-5.054544	惧	-0.7757496
-5.531665	惨	-0.2994117
-4.230635	惯	-0.2695777
-2.935068	想	-0.6165619
-4.069267	惹	-0.394028
-4.686567	愉	-0.7415412
-3.527344	意	-0.8498625
-3.607386	感	-1.098342
-5.230635	愿	-0.461364
-3.674333	慢	-0.7760132
-4.209446	懂	-0.3810407
-4.417722	戎	-0.2837222
-3.951882	戏	-0.3469885
-3.518828	成	-0.5324743
-2.108092	我	-1.186986
-2.956478	或	-1.509162
-4.753514	战	-0.3737708
-4.385537	戚	-0.3464225
-5.531665	截	-0.3243735
-4.686567	戴	-0.7637447
-4.577423	户	-0.3923328
-3.341334	房	-0.9405485
-2.721433	所	-1.442359
-5.230635	扁	-0.316125
-3.746336	手	-0.6510291
-3.228469	才	-0.6940367
-5.054544	扎	-0.4013507
-5.531665	扒	-0.3262253
-3.639571	打	-0.5723982
-4.832695	扔	-0.3351108
-5.230635	托	-0.4613627
-4.929605	扣	-0.283631
-4.929605	执	-0.613124
-4.929605	扬	-0.4607595
-5.531665	扮	-0.3209073
-4.929605	扰	-0.6109593
-4.929605	扶	-0.5255917
-4.929605	批	-0.3155743
-3.563182	找	-0.6760834
-5.054544	技	-0.3158582
-3.257508	把	-0.861636
-4.832695	抓	-0.3084305
-4.628575	投	-0.4514525
-5.531665	抗	-0.3182841
-5.054544	折	-0.3259186
-4.929605	抢	-0.6079765
-4.133725	护	-0.6899112
-5.531665	报	-0.3040648
-5.230635	披	-0.4614904
-5.531665	抱	-0.3210598
-5.230635	抵	-0.3262163
-5.531665	抹	-0.3236714
-4.116692	抽	-0.9045233
-4.385537	担	-0.9725686
-4.577423	拆	-0.3717237
-3.498242	拉	-0.7208307
-5.054544	拌	-0.3071807
-3.753514	拍	-0.8927219
-4.577423	拖	-0.620903
-5.531665	拚	-0.294958
-4.929605	招	-0.3538401
-3.587183	拜	-0.8536601
-4.385537	拥	-1.467009
-5.230635	拨	-0.3250296
-3.929605	择	-0.3277244
-3.940601	括	-0.3692487
-5.054544	拳	-0.2983794
-5.230635	拼	-0.324167
-4.133725	拿	-0.3951398
-5.054544	持	-0.3167219
-5.531665	挂	-0.3236714
-3.908416	指	-0.7486853
-4.832695	按	-0.2835775
-5.531665	挑	-0.316889
-5.054544	挖	-0.4093825
-5.054544	挡	-0.4111525
-4.230635	挤	-0.4104191
-5.230635	挨	-0.3236637
-3.319478	挺	-0.6927075
-5.531665	捉	-0.3262981
-4.686567	捕	-1.139519
-5.230635	捞	-0.3256796
-4.452484	捡	-0.9185312
-3.427862	换	-0.6056152
-5.531665	捣	-0.3262968
-5.054544	捧	-0.2788635
-4.832695	据	-0.3221194
-4.417722	捷	-0.2640336
-4.417722	掉	-0.3579826
-5.230635	掌	-0.4562496
-3.478587	排	-0.6517074
-4.686567	探	-0.4604809
-3.558537	接	-0.5410431
-4.230635	控	-1.129037
-4.276393	推	-0.7492859
-5.230635	揉	-0.4613614
-4.116692	提	-0.4303893
-5.230635	握	-0.3234902
-5.531665	援	-0.2994117
-5.531665	搓	-0.3261716
-4.577423	搞	-0.3812957
-4.628575	搬	-0.320461
-3.662434	搭	-0.479767
-5.230635	携	-0.4612056
-5.230635	摄	-0.3260745
-4.209446	摆	-0.6497632
-4.084507	摊	-0.6287279
-3.868907	摩	-1.593349
-5.531665	摸	-0.323918
-4.628575	撞	-0.6087503
-5.531665	播	-0.3256336
-4.832695	操	-0.775597
-4.929605	攀	-0.5255981
-5.531665	支	-0.3263019
-3.518828	收	-1.171234
-4.276393	改	-0.4633379
-5.531665	攻	-0.3262993
-3.364348	放	-0.8081765
-3.868907	政	-1.205608
-4.531665	故	-0.6849447
-4.753514	效	-0.3544274
-4.209446	敏	-1.34196
-5.230635	救	-0.3260388
-3.597167	教	-0.6666968
-4.452484	散	-0.9135476
-3.898197	数	-0.4033284
-3.587183	整	-1.197164
-3.553942	文	-0.3685688
-4.753514	斋	-0.4152477
-5.531665	斌	-0.2994117
-4.577423	斑	-0.3958754
-5.531665	斗	-0.3182841
-3.434755	料	-0.7533599
-4.452484	斜	-1.112341
-4.209446	斤	-0.4343585
-3.975363	斯	-0.7620693
-2.340214	新	-2.045901
-2.588171	方	-0.9510505
-4.628575	施	-0.2902463
-3.668343	旁	-1.140886
-2.98884	旅	-1.886792
-4.628575	旋	-0.9541302
-3.602247	族	-0.4962134
-4.832695	旗	-0.2770096
-4.490273	无	-0.5181034
-5.054544	既	-0.7741008
-3.553942	日	-0.6733685
-5.531665	旦	-0.3262227
-3.987597	旧	-1.046758
-5.054544	旨	-0.3686985
-3.391786	早	-1.084186
-2.767489	时	-0.8530478
-4.577423	旺	-0.3899963
-4.929605	昂	-0.5254282
-5.230635	昆	-0.4614827
-5.054544	昌	-0.4061286
-3.540439	明	-0.8555388
-5.531665	昏	-0.3261359
-4.252912	易	-0.4485796
-3.549394	星	-1.016559
-5.531665	映	-0.3260758
-4.069267	春	-1.144438
-1.611855	是	-0.6547831
-5.531665	昼	-0.3261359
-5.531665	显	-0.3258535
-5.531665	晃	-0.3200752
-4.490273	晒	-0.371076
-4.686567	晓	-1.139524
-3.158753	晚	-1.210823
-5.230635	晨	-0.3146324
-3.732325	普	-1.355293
-3.108419	景	-1.144115
-5.230635	晴	-0.4607505
-4.929605	暂	-0.6024846
-5.531665	暑	-0.3262278
-5.531665	暖	-0.294958
-5.054544	暗	-0.3995586
-5.531665	暴	-0.3262891
-5.531665	暹	-0.3262981
-3.815662	更	-0.4247546
-4.490273	曾	-1.079018
-5.230635	替	-0.460638
-3.054544	最	-0.8772947
-3.306356	月	-0.625837
-1.908416	有	-0.6519597
-3.791303	朋	-2.037341
-3.531665	服	-0.7067238
-5.531665	朗	-0.3251589
-4.327545	望	-0.6063585
-5.054544	朝	-0.3158281
-3.699157	期	-0.2865714
-4.169938	木	-0.622886
-5.230635	未	-0.3245325
-4.385537	末	-0.339962
-3.494239	本	-1.016942
-4.054544	术	-0.8879178
-4.686567	朱	-1.139965
-4.929605	朵	-0.2646452
-3.207383	机	-0.7533946
-5.054544	杀	-0.3188494
-4.490273	杂	-0.3238169
-4.686567	李	-0.2630028
-4.753514	材	-0.2721483
-3.963464	村	-0.7788259
-5.531665	杞	-0.3256234
-4.628575	束	-0.3639659
-3.335766	条	-0.4272169
-2.404237	来	-0.7613779
-4.151454	杯	-0.4067925
-4.686567	松	-0.3950652
-4.490273	板	-0.3775364
-5.230635	极	-0.3006921
-4.686567	构	-0.6506495
-4.151454	林	-0.5713896
-2.636243	果	-0.6327803
-5.531665	枝	-0.3252754
-5.531665	枸	-0.3263019
-4.753514	柏	-0.6610628
-4.929605	某	-0.371423
-4.385537	柔	-0.9286218
-4.686567	柜	-1.139888
-4.686567	柠	-1.139965
-4.301217	查	-0.7344328
-3.607386	标	-0.9329112
-3.791303	栋	-0.5778365
-5.230635	栏	-0.3148369
-4.133725	树	-0.4513873
-5.531665	栗	-0.3256234
-4.301217	校	-0.4173936
-4.929605	株	-0.3549095
-2.607903	样	-0.8294865
-4.832695	核	-0.3391869
-4.151454	根	-0.3810219
-3.474761	格	-0.5213372
-5.054544	栽	-0.4087699
-4.531665	桂	-0.6279052
-4.452484	案	-0.3709363
-4.628575	桌	-0.6013158
-5.230635	桔	-0.4608132
-3.62318	档	-0.6818286
-3.753514	桥	-0.5231917
-5.531665	桨	-0.3161276
-5.054544	桩	-0.3809231
-5.054544	桶	-0.2798238
-4.929605	梁	-0.5255751
-5.531665	梦	-0.3251589
-4.577423	梨	-0.3475441
-4.276393	梯	-0.3452928
-4.929605	械	-0.5239709
-5.230635	梵	-0.461212
-5.054544	检	-0.3182606
-5.531665	棉	-0.3262993
-5.531665	棒	-0.2994117
-4.577423	森	-0.9999694
-4.628575	椅	-0.3322921
-3.639571	植	-1.91657
-3.582275	椒	-1.151794
-3.987597	椰	-1.05127
-3.799272	楚	-0.7240258
-3.303779	楼	-0.6288263
-2.906353	概	-0.6931993
-4.929605	榜	-0.6052529
-3.498242	榴	-2.055016
-4.327545	榻	-0.974209
-5.531665	槟	-0.294958
-4.209446	樟	-1.637669
-4.531665	模	-0.5194741
-5.230635	橘	-0.461166
-5.531665	橙	-0.3259762
-4.686567	檬	-0.3760861
-3.712121	次	-0.3178421
-3.373303	欢	-0.5571854
-4.929605	欣	-0.5255853
-4.230635	欧	-0.7445183
-4.452484	款	-0.4050012
-4.084507	歌	-0.6171126
-4.490273	止	-0.2673754
-4.000186	正	-0.4048665
-5.230635	此	-0.2989945
-3.859567	步	-0.8466465
-4.686567	武	-0.6608437
-5.054544	死	-0.4097596
-4.832695	殊	-0.4661638
-4.385537	殖	-1.044306
-4.151454	段	-0.3375314
-4.417722	母	-0.3542454
-3.725485	每	-1.06129
-4.929605	毒	-0.4513057
-2.598685	比	-1.697324
-4.417722	毕	-0.8894331
-4.000186	毛	-0.4110733
-5.531665	毫	-0.3261231
-5.054544	毯	-0.292678
-5.531665	氏	-0.325045
-3.246108	民	-0.8552533
-3.760813	气	-0.382169
-2.977782	水	-0.5115566
-4.054544	汁	-0.3813687
-5.054544	求	-0.2800113
-4.577423	汇	-0.7924488
-4.252912	汉	-1.124388
-5.531665	汕	-0.3259698
-5.230635	汗	-0.4392546
-4.832695	江	-0.2253238
-3.634038	池	-0.6989526
-5.230635	污	-0.4610356
-3.662434	汤	-0.6470252
-4.832695	汽	-0.621486
-5.531665	沃	-0.3161276
-5.054544	沉	-0.7759003
-4.628575	沐	-0.9091512
-2.932875	沙	-0.8429981
-4.133725	沟	-1.194787
-2.722106	没	-1.219821
-5.531665	沦	-0.3263006
-3.607386	河	-0.6439316
-3.639571	油	-0.751361
-4.230635	治	-0.6474842
-4.276393	沾	-0.4153163
-4.355574	沿	-1.003195
-4.832695	泉	-0.2750429
-3.725485	法	-0.3845029
-5.230635	波	-0.461447
-5.230635	泥	-0.4614215
-4.100302	注	-1.06808
-4.490273	泰	-1.367182
-3.456118	泳	-0.9124486
-4.832695	泵	-0.3168387
-5.531665	泽	-0.3260247
-4.929605	洁	-0.3555686
-4.133725	洋	-0.293087
-4.490273	洗	-0.3922011
-5.531665	洞	-0.3161276
-5.230635	津	-0.4614891
-5.531665	洪	-0.2994117
-5.531665	洱	-0.3182841
-4.151454	洲	-0.4961503
-3.680407	活	-0.5430351
-4.686567	派	-0.2597464
-4.026515	流	-0.5735725
-4.832695	浆	-0.6219461
-4.276393	济	-0.3410636
-4.531665	浓	-0.7658887
-4.209446	浪	-0.7703616
-5.230635	浮	-0.3160949
-4.628575	浴	-0.5622275
-2.804124	海	-1.038517
-5.531665	浸	-0.3236714
-5.531665	涂	-0.3263019
-3.859567	消	-1.498664
-4.929605	涛	-0.5910811
-5.531665	液	-0.3262763
-3.255203	淘	-2.556531
-3.77579	淡	-1.078599
-4.385537	深	-0.4769101
-4.490273	混	-0.5852453
-5.230635	淹	-0.4610356
-3.662434	清	-1.236002
-4.069267	渔	-1.477074
-4.628575	渡	-0.9541761
-4.276393	温	-0.6840099
-3.868907	港	-0.5624198
-5.230635	渴	-0.2659853
-2.864213	游	-0.8761452
-4.929605	湄	-0.5250832
-4.385537	湖	-0.2873924
-3.656604	湾	-0.668347
-5.230635	湿	-0.2948509
-4.000186	源	-0.4435249
-5.531665	溜	-0.3263006
-5.531665	溪	-0.3177102
-5.531665	滋	-0.3262087
-4.169938	滑	-0.847943
-4.169938	满	-0.5700863
-4.753514	滤	-0.354321
-3.878453	滨	-1.482817
-3.628575	滩	-0.5600476
-3.712121	漂	-1.842283
-5.531665	漆	-0.326247
-3.467207	演	-0.7904891
-5.531665	漠	-0.3210598
-4.628575	漫	-0.6491793
-5.531665	漱	-0.3261946
-5.230635	潘	-0.4612465
-4.301217	潮	-0.9287015
-4.929605	澡	-0.419201
-4.531665	激	-0.4900691
-4.929605	濒	-0.525607
-5.531665	瀑	-0.3262687
-5.531665	灌	-0.2994117
-3.898197	火	-0.6961074
-4.230635	灯	-0.7039794
-5.531665	灰	-0.3256336
-4.753514	炎	-0.9124004
-4.301217	炒	-0.4344055
-5.230635	炖	-0.2989333
-4.577423	炮	-0.9999145
-4.628575	炸	-0.4127266
-2.64971	点	-0.6317568
-4.686567	炼	-0.6676764
-5.230635	烈	-0.4613831
-5.230635	烊	-0.3200856
-3.878453	烟	-0.6149438
-3.62318	烤	-0.8594728
-4.452484	烦	-0.4513907
-3.975363	烧	-0.9908828
-5.531665	烫	-0.3182841
-3.650852	热	-0.7983034
-4.577423	烹	-0.6761046
-5.531665	焰	-0.3262457
-2.353264	然	-1.494383
-5.531665	煌	-0.3040648
-4.577423	煎	-0.9999719
-3.306356	照	-0.7852683
-3.732325	煮	-0.8844304
-4.628575	熊	-0.9120229
-4.069267	熟	-0.6136279
-4.929605	熬	-0.602842
-4.628575	燕	-0.5255585
-5.531665	爆	-0.3262929
-4.417722	爬	-0.5972943
-4.301217	爱	-0.6270084
-4.452484	父	-1.01207
-3.951882	爸	-1.060929
-4.628575	爹	-0.4170214
-3.201252	片	-0.6324179
-5.531665	版	-0.3161276
-4.026515	牌	-0.391629
-4.230635	牙	-0.911801
-3.349822	牛	-1.376966
-5.531665	牢	-0.3040648
-2.774269	物	-0.8387863
-5.531665	牵	-0.3261231
-3.053099	特	-1.638474
-5.230635	犯	-0.3262202
-4.385537	状	-0.3698481
-4.929605	狂	-0.6107268
-4.169938	独	-1.282716
-2.972957	狮	-0.9337436
-5.531665	狱	-0.3249489
-4.753514	猎	-0.3042864
-5.230635	猛	-0.3189144
-4.301217	猜	-0.8784391
-4.753514	猩	-0.4536852
-3.807389	猪	-0.9366776
-4.577423	猫	-0.2989702
-4.929605	猬	-0.3315899
-4.531665	猴	-0.4832489
-4.531665	猿	-0.4130228
-5.054544	獭	-0.3878814
-4.531665	率	-0.3933716
-4.301217	王	-0.613619
-5.531665	玛	-0.3259698
-3.113364	玩	-0.8163617
-3.523065	环	-1.126709
-2.910489	现	-1.525247
-4.929605	玻	-0.5256096
-4.490273	珍	-0.8703705
-5.230635	珠	-0.4513174
-4.040304	班	-0.4206938
-3.592146	球	-1.342279
-5.054544	琅	-0.7760012
-3.841469	理	-0.4503168
-5.054544	琳	-0.7760267
-5.230635	琴	-0.3257985
-5.054544	瑞	-0.4035401
-5.531665	瑟	-0.3040648
-4.929605	璃	-0.2642359
-5.054544	瓜	-0.2730585
-4.832695	瓶	-0.4256147
-4.753514	甘	-0.4216263
-5.054544	甚	-0.7760075
-3.878453	甜	-0.8527217
-3.255203	生	-0.8312784
-2.878453	用	-0.4802032
-5.531665	田	-0.3040648
-3.963464	由	-0.4758889
-4.753514	甲	-0.502481
-5.230635	申	-0.3259276
-3.281245	电	-1.28661
-4.490273	男	-0.5844908
-5.054544	甸	-0.3610161
-3.841469	画	-0.7024181
-3.617851	界	-0.6697487
-5.054544	畔	-0.2918536
-4.069267	留	-0.3626584
-5.054544	畜	-0.4009622
-5.531665	疆	-0.3040648
-5.230635	疑	-0.4612989
-4.832695	疗	-0.294774
-4.929605	疯	-0.5256096
-5.230635	病	-0.3244735
-5.054544	症	-0.2875573
-5.054544	痛	-0.7680115
-4.531665	痰	-0.3334935
-5.054544	登	-0.4073668
-3.293619	白	-1.214484
-3.010527	百	-1.232593
-5.531665	皂	-0.3182841
-1.635305	的	-0.7020522
-5.531665	皆	-0.3263006
-4.753514	皇	-0.5457768
-4.832695	皮	-0.3529988
-4.753514	盒	-0.4357296
-5.054544	盔	-0.2741569
-4.832695	盖	-0.3558439
-4.385537	盘	-0.2647085
-4.929605	盛	-0.6132861
-3.674333	目	-0.861794
-3.597167	直	-0.6361695
-3.725485	相	-0.6712049
-4.686567	省	-0.3579562
-2.161708	看	-1.20765
-3.572624	真	-1.174373
-4.531665	眼	-0.7594444
-3.382446	着	-0.3577065
-4.753514	睛	-0.7421184
-4.753514	睡	-0.4458204
-4.753514	督	-0.9123876
-5.531665	瞄	-0.294958
-5.531665	瞭	-0.3262827
-3.459783	知	-1.452767
-4.133725	短	-0.6602239
-4.169938	石	-0.5461287
-4.929605	矿	-0.3508779
-3.656604	码	-1.471289
-4.577423	砂	-0.9999604
-5.230635	研	-0.4614891
-5.531665	破	-0.3262993
-5.531665	硬	-0.325911
-4.169938	确	-0.9584105
-5.054544	碍	-0.2567586
-4.832695	碎	-0.3449094
-4.832695	碑	-0.5096328
-4.301217	碗	-0.3179574
-5.531665	碟	-0.3161276
-5.054544	碧	-0.7759322
-4.301217	碰	-1.05377
-5.230635	碳	-0.461447
-4.531665	示	-0.3618853
-3.918881	礼	-0.9669982
-4.189243	社	-0.3236558
-5.230635	祂	-0.4513174
-3.987597	祖	-0.7806389
-5.531665	祛	-0.3262138
-4.753514	祝	-0.4020818
-4.452484	神	-0.2649358
-5.054544	祥	-0.384656
-3.14073	票	-0.7095453
-5.531665	祭	-0.3262878
-5.531665	祸	-0.3254968
-4.628575	禁	-0.6018475
-4.686567	禅	-1.139909
-3.732325	福	-1.271091
-3.850424	离	-0.3275345
-3.753514	禽	-0.9343385
-4.577423	秀	-0.2978378
-4.531665	私	-1.158559
-5.531665	秃	-0.3262955
-4.832695	秋	-0.4774304
-2.889201	种	-0.3410844
-5.230635	科	-0.3262355
-4.832695	秒	-0.4083096
-3.868907	租	-0.6378387
-4.169938	积	-0.37765
-4.417722	称	-0.3522615
-4.116692	移	-1.4382
-5.054544	稀	-0.4112432
-3.674333	程	-0.4426605
-3.70559	稍	-2.152123
-4.753514	税	-0.9118176
-5.531665	稣	-0.3040648
-5.230635	稽	-0.4614713
-5.230635	穆	-0.4612669
-5.531665	穗	-0.294958
-5.054544	究	-0.405369
-3.692816	空	-0.6952273
-4.151454	穿	-0.3541236
-4.832695	突	-0.3305956
-5.531665	窄	-0.3262929
-5.230635	窗	-0.2991032
-4.929605	窝	-0.2832322
-4.040304	立	-0.5512983
-4.929605	竖	-0.3882028
-3.053099	站	-0.9346113
-4.628575	竟	-0.338558
-4.230635	章	-0.7390502
-4.686567	童	-0.335244
-4.628575	端	-0.294054
-4.355574	竹	-0.369674
-4.452484	笑	-1.113868
-5.054544	笔	-0.2697086
-3.490273	第	-1.594553
-4.753514	笼	-0.6604941
-3.370297	等	-0.9484682
-5.531665	筋	-0.3205361
-3.725485	筑	-0.7701713
-4.832695	答	-0.5231549
-4.929605	策	-0.3583718
-4.929605	筝	-0.5628304
-5.531665	筷	-0.3256234
-3.975363	签	-1.548204
-4.327545	简	-1.230384
-3.296137	算	-0.4564623
-4.169938	管	-0.5172917
-4.628575	箭	-0.9539092
-5.230635	箱	-0.2937541
-4.753514	籍	-0.6558217
-3.628575	米	-0.7462512
-3.201252	类	-0.9136173
-4.100302	粉	-0.3771431
-4.832695	粒	-0.5222698
-4.490273	粘	-0.4709205
-4.832695	粤	-0.7759382
-5.531665	粪	-0.3259864
-5.531665	粹	-0.315556
-4.385537	粽	-1.175412
-4.832695	精	-0.3720207
-4.753514	粿	-0.6340883
-4.084507	糕	-0.5971662
-4.531665	糖	-0.2401092
-5.230635	糯	-0.4613908
-4.189243	系	-0.5410873
-4.577423	素	-0.360769
-4.531665	索	-0.3485882
-4.628575	紧	-0.4996874
-3.918881	紫	-1.938283
-5.054544	累	-0.2798238
-4.169938	繁	-1.138677
-3.898197	红	-1.174043
-4.355574	约	-0.2788216
-3.850424	级	-0.5949129
-3.597167	纪	-1.055297
-5.054544	纯	-0.3262533
-5.531665	纱	-0.3205413
-5.531665	纳	-0.3259979
-5.531665	纸	-0.3182841
-4.686567	纽	-0.4726625
-3.367312	线	-0.6146792
-5.230635	练	-0.3107592
-4.100302	组	-0.6382755
-4.417722	细	-0.2990032
-5.054544	织	-0.2933107
-5.230635	终	-0.3257819
-3.327545	绍	-0.8834738
-3.424455	经	-0.5659052
-3.963464	结	-0.9772364
-4.490273	绕	-0.5780371
-2.893176	给	-1.039106
-5.531665	络	-0.3210598
-4.686567	绝	-0.4680735
-4.355574	统	-0.3143906
-4.385537	继	-1.176063
-4.189243	续	-0.3302187
-5.054544	绳	-0.3839912
-4.013152	维	-0.7006811
-5.230635	绸	-0.3249169
-4.084507	综	-1.462249
-3.859567	绿	-1.053431
-5.054544	缅	-0.7760267
-3.725485	缆	-1.374915
-4.929605	编	-0.388337
-5.054544	缘	-0.2968845
-5.230635	缝	-0.2948592
-5.531665	缪	-0.294958
-5.230635	缴	-0.3171681
-5.531665	缺	-0.3263006
-4.490273	罐	-0.3354226
-4.026515	网	-0.6815696
-4.929605	罗	-0.3882385
-4.686567	罚	-0.7634891
-4.832695	罢	-0.774249
-5.531665	罪	-0.3262904
-4.686567	置	-0.2800554
-4.252912	羊	-1.263513
-3.421076	美	-1.094598
-4.929605	群	-0.283469
-4.929605	翅	-0.5256096
-4.452484	翻	-0.6408526
-5.531665	耀	-0.3261538
-3.482447	老	-1.210549
-4.531665	考	-0.7503622
-2.98884	者	-0.5755113
-3.427862	而	-1.299978
-5.230635	耐	-0.4612567
-5.230635	耗	-0.3234427
-5.054544	耳	-0.4111205
-4.452484	耶	-0.8087097
-5.230635	聆	-0.4614585
-4.753514	聊	-0.4922633
-4.929605	职	-0.3878933
-4.355574	联	-0.4087908
-5.054544	聘	-0.4083507
-4.753514	聚	-0.3627507
-5.531665	聪	-0.326178
-5.531665	肃	-0.3161276
-2.942834	肉	-1.190228
-5.054544	肚	-0.7753507
-5.531665	肝	-0.294958
-5.230635	肠	-0.297998
-5.230635	股	-0.4582892
-5.531665	肤	-0.3252076
-5.230635	肥	-0.3263006
-5.230635	肩	-0.4513174
-5.531665	肮	-0.3263019
-4.355574	肯	-1.203916
-4.832695	育	-0.5357187
-4.753514	肴	-0.35613
-5.230635	胃	-0.4513174
-5.531665	胆	-0.3261716
-4.490273	背	-0.5854688
-5.531665	胗	-0.3261129
-4.013152	胜	-0.6898331
-5.230635	胞	-0.2956203
-4.189243	胡	-1.263757
-5.531665	胶	-0.3259033
-5.531665	胸	-0.3263019
-3.047365	能	-0.4199201
-5.531665	脏	-0.2994117
-4.531665	脑	-0.3977337
-4.628575	脚	-0.4791175
-4.686567	脱	-0.5133557
-5.054544	腊	-0.4055593
-5.230635	腌	-0.3159851
-4.355574	腐	-0.2438587
-5.531665	腰	-0.3262763
-4.577423	腻	-0.6341642
-5.531665	腾	-0.3262151
-4.929605	膀	-0.3517281
-4.628575	膏	-0.2853864
-5.230635	臂	-0.3251551
-3.278812	自	-1.273402
-4.276393	至	-0.660629
-4.531665	致	-0.6750213
-5.230635	舌	-0.4610382
-4.327545	舍	-0.5212501
-4.276393	舒	-1.134923
-4.327545	舞	-0.3762732
-4.531665	航	-0.6408485
-3.859567	般	-0.4964415
-5.230635	舱	-0.2956203
-5.531665	舶	-0.3161276
-3.523065	船	-0.3726811
-4.490273	艇	-0.300393
-4.628575	艘	-0.6692724
-5.230635	良	-0.2974662
-5.531665	艰	-0.3262993
-3.123425	色	-0.8289522
-5.230635	艳	-0.288578
-3.975363	艺	-1.250134
-3.205329	节	-0.9255046
-5.531665	芋	-0.3259698
-4.753514	芝	-0.7756882
-3.036121	花	-0.7641873
-5.054544	苏	-0.7757891
-4.929605	若	-0.3183608
-5.230635	苦	-0.2757133
-3.639571	英	-2.051693
-5.230635	苹	-0.4604882
-5.531665	茁	-0.3262929
-5.531665	茂	-0.3262265
-5.054544	范	-0.3006663
-4.929605	茄	-0.5820339
-5.054544	茅	-0.4033853
-5.531665	茉	-0.3263019
-3.262152	茶	-0.6489986
-4.832695	茸	-0.4271753
-4.355574	草	-0.3450884
-4.531665	荐	-0.3470248
-5.531665	荧	-0.326284
-4.084507	药	-0.4535212
-5.230635	荷	-0.4614444
-5.531665	莉	-0.3259033
-5.230635	莎	-0.3040043
-4.169938	莱	-1.66054
-3.482447	莲	-0.5055342
-5.230635	菇	-0.3038699
-5.230635	菊	-0.3252715
-5.531665	菌	-0.3262802
-3.494239	菜	-0.6572729
-4.417722	菠	-1.1461
-5.054544	菱	-0.3892399
-5.230635	菲	-0.2994035
-4.189243	萝	-0.6272382
-4.169938	营	-0.7437322
-5.531665	萧	-0.3263019
-4.355574	落	-0.4227597
-4.301217	著	-1.556405
-5.531665	葛	-0.2994117
-5.230635	董	-0.325205
-4.531665	葱	-0.7434127
-5.531665	蒙	-0.3262649
-4.169938	蒜	-1.355291
-5.230635	蒸	-0.2506544
-4.385537	蓄	-1.471304
-4.355574	蓝	-0.340972
-4.832695	蓬	-0.3523879
-4.929605	蔬	-0.5254755
-5.230635	薄	-0.316125
-5.531665	薪	-0.294958
-5.054544	薰	-0.7759386
-4.832695	藏	-0.3151488
-4.753514	藤	-0.4419875
-5.531665	藻	-0.3200752
-4.452484	虎	-0.3822366
-4.628575	虑	-0.2514006
-4.929605	虚	-0.3886397
-4.628575	虫	-0.2846651
-4.577423	虽	-0.9980703
-4.276393	虾	-0.5234063
-5.531665	蚁	-0.294958
-5.531665	蚂	-0.3263019
-4.832695	蚊	-0.7760672
-5.531665	蚌	-0.294958
-4.832695	蚶	-0.5043778
-4.753514	蛇	-0.4389361
-4.301217	蛋	-0.3384438
-4.929605	蛙	-0.275198
-4.628575	蛤	-0.3587512
-3.929605	蛮	-0.5735616
-5.054544	蜂	-0.7760254
-4.929605	蜜	-0.2574967
-4.929605	蜡	-0.5249503
-4.832695	蝴	-0.776071
-4.832695	蝶	-0.4299789
-5.531665	螂	-0.3040648
-3.482447	螃	-2.052929
-4.169938	融	-0.8910771
-4.832695	螯	-0.3325477
-5.531665	蟑	-0.3263019
-5.230635	蟒	-0.4614853
-3.46348	蟹	-0.6503239
-4.686567	血	-0.3773214
-3.044527	行	-0.7470207
-5.531665	衍	-0.3177102
-3.181417	街	-0.6903378
-3.674333	衣	-1.003903
-4.531665	补	-0.4212976
-3.286153	表	-1.111277
-5.054544	衫	-0.2403338
-5.054544	衬	-0.7760267
-4.753514	袋	-0.5548344
-5.230635	袍	-0.2757133
-4.230635	被	-0.306826
-5.531665	袭	-0.3246594
-5.531665	裁	-0.3040648
-3.832695	装	-0.3793858
-4.929605	裔	-0.365752
-4.628575	裕	-0.7489617
-4.628575	裙	-0.8847505
-4.628575	裤	-0.4287402
-5.230635	裹	-0.4611864
-5.531665	褐	-0.3259762
-3.089186	西	-0.6953587
-2.473999	要	-0.5621178
-4.209446	见	-0.5449768
-3.438244	观	-0.7212112
-4.100302	规	-0.7563084
-5.531665	觅	-0.3260005
-4.301217	视	-0.4040284
-4.628575	览	-0.3744678
-3.314181	觉	-0.757146
-4.100302	角	-0.6054211
-3.510476	解	-0.751199
-4.531665	触	-0.4774519
-3.929605	言	-0.3837738
-4.686567	警	-0.6608232
-3.712121	计	-0.61997
-3.868907	订	-0.4654983
-4.355574	认	-1.50153
-3.628575	让	-0.83912
-5.230635	训	-0.4614904
-4.133725	议	-0.3266016
-4.452484	讯	-0.4393518
-4.040304	记	-0.6504334
-3.438244	讲	-0.3833998
-5.531665	讳	-0.3248119
-4.490273	许	-0.3204694
-3.841469	设	-1.020663
-5.054544	访	-0.4012317
-3.888213	证	-0.3940575
-5.531665	评	-0.3260694
-4.355574	识	-0.2831309
-4.355574	诉	-0.5226135
-5.531665	词	-0.3040648
-4.628575	译	-0.4470942
-4.151454	试	-0.746158
-2.771997	话	-0.977808
-5.531665	诞	-0.3260324
-4.577423	询	-0.5701165
-3.239409	该	-0.7308048
-4.929605	详	-0.5255981
-3.283692	语	-0.9022707
-5.054544	误	-0.4103516
-2.448163	说	-0.6391766
-3.929605	请	-0.6218519
-4.832695	诺	-0.7760352
-4.753514	读	-0.3094231
-4.753514	课	-0.2543091
-5.054544	谁	-0.319479
-4.000186	调	-0.5931484
-4.686567	谈	-0.3645863
-5.531665	谐	-0.3040648
-4.209446	谓	-0.4446089
-3.398126	谢	-1.368575
-4.355574	豆	-1.200893
-4.040304	豚	-0.4684429
-4.069267	象	-0.2938055
-4.531665	豪	-1.041095
-4.753514	豹	-0.4668958
-5.054544	貌	-0.3809231
-5.054544	贝	-0.7757572
-5.054544	负	-0.7760267
-5.531665	财	-0.3262329
-5.054544	责	-0.2821989
-5.531665	败	-0.3262929
-4.209446	货	-0.4527339
-4.355574	质	-0.4890086
-4.013152	贩	-0.9114264
-3.361404	购	-1.753482
-4.832695	贯	-0.5056007
-5.054544	贴	-0.3155966
-3.367312	贵	-1.237311
-3.113364	费	-0.678378
-3.963464	资	-0.7007473
-3.760813	赌	-1.31314
-4.169938	赏	-0.2992141
-5.531665	赔	-0.3259353
-4.929605	赚	-0.3856634
-4.929605	赛	-0.3868407
-3.257508	走	-0.7440616
-4.628575	赶	-0.4291657
-3.151454	起	-0.9342597
-5.531665	趁	-0.3261269
-4.069267	超	-1.181855
-4.417722	越	-0.3465463
-4.417722	趟	-0.3560376
-4.355574	趣	-0.533885
-4.355574	足	-0.4875802
-5.531665	跃	-0.3182841
-5.054544	跌	-0.7759309
-4.385537	跑	-0.3951604
-4.169938	距	-1.352145
-2.955324	跟	-0.6798995
-5.531665	跨	-0.3255095
-5.230635	跪	-0.3251871
-3.126832	路	-0.5903741
-4.355574	跳	-0.8675816
-5.531665	踊	-0.3263019
-4.929605	踏	-0.6132185
-5.531665	踩	-0.3260745
-3.832695	身	-0.3512442
-2.848618	车	-0.6766669
-4.100302	轨	-0.475698
-3.587183	转	-0.5476992
-3.815662	轮	-0.7444552
-3.783477	轻	-1.02387
-4.577423	载	-0.3690259
-2.778082	较	-0.6217251
-4.832695	辅	-0.7760506
-4.133725	辆	-0.3909592
-5.054544	辈	-0.2871229
-5.531665	辉	-0.3263019
-5.230635	输	-0.4614406
-5.054544	辛	-0.4014278
-3.44888	辣	-1.109044
-5.230635	辨	-0.3203821
-2.40945	边	-0.7272508
-3.975363	达	-0.3565689
-5.531665	迁	-0.323918
-2.738574	过	-0.9210568
-4.252912	迎	-0.6093113
-4.189243	运	-0.4307545
-3.293619	近	-0.4261267
-2.464967	还	-1.501272
-1.70793	这	-1.679323
-3.355574	进	-0.8704606
-3.760813	远	-0.5895073
-5.054544	违	-0.4114936
-3.859567	连	-0.6323512
-4.490273	迟	-0.3079411
-4.189243	迪	-0.7431078
-5.531665	迫	-0.3200752
-5.054544	述	-0.3193298
-5.054544	迷	-0.4096365
-5.230635	迹	-0.4346015
-4.929605	追	-0.2898295
-4.301217	退	-1.239126
-3.918881	送	-0.5853252
-3.868907	适	-0.7815226
-5.531665	逃	-0.3262853
-3.807389	选	-1.048047
-4.929605	逊	-0.6101084
-4.753514	透	-0.2922971
-5.531665	递	-0.3200752
-4.531665	途	-0.2890595
-4.753514	逗	-0.9124604
-3.027875	通	-0.6744348
-3.686567	逛	-0.6647739
-4.628575	速	-0.9539168
-4.151454	造	-0.4053129
-5.054544	逢	-0.2187497
-5.531665	逮	-0.3161276
-5.531665	逸	-0.3247581
-4.753514	逼	-0.5026625
-5.230635	逾	-0.4614061
-4.929605	遇	-0.6078136
-4.531665	遍	-0.4406853
-3.181417	道	-0.4985487
-5.230635	遗	-0.3255607
-4.929605	遮	-0.3249309
-4.686567	遵	-0.5114715
-5.531665	避	-0.3262265
-1.920792	那	-1.145265
-5.531665	邦	-0.2994117
-4.209446	邬	-1.342396
-5.230635	邮	-0.3262419
-4.452484	邻	-0.5231901
-4.577423	郊	-0.791519
-3.002749	部	-0.9518958
-4.832695	郭	-0.4768564
-2.583742	都	-0.9770054
-3.841469	配	-0.5063196
-4.832695	酐	-0.2592778
-2.891184	酒	-1.497026
-3.486342	酱	-0.8221792
-4.209446	酸	-0.4912649
-5.230635	酿	-0.2777085
-5.531665	采	-0.3257282
-4.628575	释	-0.3299122
-2.537788	里	-0.8111563
-4.100302	重	-0.4275524
-3.975363	野	-0.9453048
-4.209446	量	-0.3326268
-3.288627	金	-0.9466141
-5.230635	鉴	-0.4612886
-5.230635	钅	-0.461387
-4.417722	针	-0.3036491
-3.355574	钟	-0.8098474
-4.686567	钢	-0.4361936
-3.072273	钱	-0.8040751
-5.054544	钻	-0.7760012
-2.954174	铁	-0.6869133
-5.531665	铅	-0.3262993
-5.054544	铜	-0.3255632
-3.868907	银	-1.985423
-4.753514	铺	-0.2362057
-5.054544	链	-0.2833492
-4.686567	销	-0.3914651
-4.490273	锁	-0.5496042
-4.040304	锅	-0.7277784
-5.531665	锈	-0.3251589
-3.44888	错	-1.059998
-3.929605	锡	-0.6248491
-4.054544	锦	-0.7790251
-5.531665	键	-0.294958
-4.686567	镕	-1.139938
-4.531665	镜	-0.5581947
-4.628575	镭	-0.9542298
-3.563182	长	-0.5419901
-3.255203	门	-0.7096534
-5.230635	闪	-0.3262419
-5.531665	闭	-0.3244748
-3.349822	问	-0.8984883
-4.301217	闲	-0.6998996
-2.908416	间	-0.5443436
-5.230635	闸	-0.3237908
-4.189243	闹	-0.6288116
-5.531665	闻	-0.3261231
-4.054544	闽	-1.491113
-4.452484	阁	-0.313201
-5.531665	阅	-0.325709
-5.531665	阔	-0.2994117
-4.301217	队	-0.3344768
-4.577423	防	-0.4326071
-4.355574	阳	-0.3664197
-5.054544	阵	-0.325567
-3.975363	阿	-1.066728
-3.859567	附	-1.747269
-4.385537	际	-0.4289633
-4.686567	陆	-0.3830116
-5.531665	陈	-0.2994117
-5.531665	陌	-0.3260618
-4.628575	降	-0.548187
-4.252912	限	-1.302724
-3.739274	院	-0.6684268
-3.597167	除	-1.376997
-4.084507	险	-0.4084955
-5.531665	陪	-0.3261231
-3.963464	陶	-1.89079
-5.230635	陷	-0.3142558
-5.531665	隆	-0.3262687
-4.133725	随	-0.7337133
-4.189243	隔	-0.6127059
-5.054544	障	-0.7760267
-4.116692	难	-0.4075918
-4.577423	雀	-0.4807523
-5.054544	雄	-0.2885765
-5.531665	雅	-0.3161276
-4.531665	集	-0.5093316
-4.230635	雕	-0.9450375
-3.898197	雨	-0.477713
-4.189243	零	-0.4560058
-5.531665	雾	-0.2994117
-3.414394	需	-1.899618
-5.531665	震	-0.3040648
-5.230635	霜	-0.3034327
-4.230635	露	-1.318983
-4.116692	青	-0.5526811
-4.100302	静	-0.7028679
-3.226314	非	-1.433426
-3.577423	靠	-0.9361115
-2.62695	面	-0.7714733
-4.169938	鞋	-0.7582054
-4.753514	鞭	-0.9124885
-5.230635	韩	-0.4609807
-3.791303	音	-0.9132575
-4.753514	页	-0.316855
-3.732325	顶	-0.4693041
-5.054544	顷	-0.2903776
-4.169938	项	-1.179242
-4.276393	顺	-0.8405233
-4.531665	须	-0.4458137
-4.753514	顾	-0.308993
-4.385537	顿	-0.3722516
-4.628575	颂	-0.4909821
-3.791303	预	-1.202862
-4.385537	领	-0.9307857
-5.230635	颈	-0.3262725
-5.531665	频	-0.3260171
-4.490273	颗	-0.3899769
-3.527344	题	-0.7987779
-4.490273	颜	-1.335999
-4.832695	额	-0.4879117
-3.686567	风	-0.7669951
-5.531665	飘	-0.3182841
-3.424455	飞	-1.227676
-3.156917	食	-0.8396412
-3.14073	餐	-0.9799938
-5.531665	饥	-0.3262955
-5.230635	饪	-0.3249066
-3.103531	饭	-0.887647
-3.824095	饮	-1.065672
-4.452484	饰	-0.61304
-4.116692	饱	-0.8399117
-5.531665	饺	-0.3256234
-4.189243	饼	-0.3839163
-4.753514	饿	-0.3270835
-4.929605	馅	-0.3507595
-3.213602	馆	-0.5972803
-4.531665	馒	-1.041059
-4.452484	首	-0.7113751
-3.398126	香	-1.072956
-3.135466	马	-1.206196
-4.753514	驯	-0.3268613
-5.230635	驰	-0.2840112
-5.230635	驳	-0.4613627
-5.531665	驶	-0.3040648
-5.054544	驾	-0.3218796
-4.832695	验	-0.5192136
-4.832695	骑	-0.4298791
-5.531665	骗	-0.3246594
-5.531665	骚	-0.3262981
-3.255203	骨	-1.328878
-3.189243	高	-0.8813539
-5.531665	髦	-0.3161276
-5.531665	鬼	-0.3251589
-2.980215	鱼	-1.36437
-5.230635	鱿	-0.4610382
-3.791303	鲜	-0.3547186
-4.832695	鲨	-0.7756226
-4.832695	鳄	-0.7756226
-3.878453	鸟	-0.8001479
-3.273987	鸡	-1.054342
-5.531665	鸭	-0.3258075
-4.417722	鹉	-0.381896
-4.417722	鹦	-1.146111
-4.753514	鹰	-0.453976
-5.531665	鹿	-0.3182841
-4.686567	麦	-0.5682898
-4.327545	麻	-0.9399381
-4.069267	黄	-0.8428473
-5.531665	黏	-0.3230994
-3.888213	黑	-0.6824984
-4.276393	黛	-1.581209
-4.230635	鼓	-1.322182
-4.929605	鼠	-0.3282177
-5.230635	齐	-0.4613691
-4.832695	齿	-0.5092735
-4.686567	龄	-0.3198035
-4.169938	龙	-0.3642549
-4.832695	龟	-0.342249
-3.298669	！	-1.245486
-2.731636	％	-2.247111
-1.301753	，	-1.090084
-3.850424	－	-0.7750301
-5.230635	５	-0.3243504
-5.531665	＞	-0.280633
-1.880097	？	-1.804357
-5.531665	Ａ	-0.3263019
-5.531665	Ｅ	-0.3263019
-5.531665	Ｉ	-0.3263019
-5.531665	Ｌ	-0.2994117
-5.531665	Ｎ	-0.3263019
-5.531665	Ｏ	-0.3263019
-5.531665	Ｒ	-0.3263019
-5.531665	Ｓ	-0.3263019
-5.531665	Ｖ	-0.3263019
-3.370297	［	-0.5179039
-3.370297	］	-0.5179039
-5.531665	ａ	-0.3263019
-5.531665	ｋ	-0.3263019
-5.531665	ｙ	-0.2994117
-3.668343	｛	-1.99755
-3.668343	｝	-0.7784882
-4.169938	～	-0.5708922

\2-grams:
-0.2506447	! </s>
-0.9761171	! ｛
-3.926148	% %	-0.06163959
-3.333081	% </s>
-4.65162	% l
-4.257565	% 。	1.287209
-4.65162	% 你
-4.65162	% 俄
-4.65162	% 又
-4.65162	% 吗
-3.420231	% 吧	-0.4262002
-4.65162	% 吶
-2.596322	% 呀	-0.1198592
-0.4678152	% 呃	0.02387154
-2.855959	% 呢	0.1451448
-1.237119	% 呵	0.1517962
-2.994262	% 咦	0.02368841
-4.65162	% 咧
-3.198382	% 咯	-0.1115923
-4.65162	% 咳
-4.65162	% 咿
-2.383247	% 哇	-0.03233063
-3.7551	% 哈	0.02128688
-2.684277	% 哎	0.1177302
-0.7206822	% 哦	0.04744017
-4.65162	% 哼
-1.699612	% 唉	0.04578346
-4.65162	% 唷
-0.7664825	% 啊	0.1625892
-1.893031	% 啦	0.2866074
-3.926148	% 喂	0.1330137
-4.65162	% 喔
-0.7252359	% 嗯	0.01589608
-2.429991	% 嘛	0.07326877
-3.471383	% 嘿	0.05464777
-4.65162	% 噢
-4.257565	% 好	-0.2379937
-4.65162	% 如
-4.65162	% 它
-4.257565	% 对	-0.03699023
-4.65162	% 就
-4.65162	% 尽
-4.257565	% 恩
-4.65162	% 来
-4.65162	% 梵
-4.65162	% 比
-4.257565	% 而	0.2983772
-4.65162	% 耶
-3.976959	% 这	0.1664955
-4.65162	% 那
-4.65162	% 问
-4.257565	% 阿	-0.3421839
-4.65162	% 马
-4.65162	% 麻
-3.976959	% ，
-0.2045454	& m	-0.1768961
-0.8792071	& v
-0.2787536	' m	-0.4649639
-0.3756636	' s	-0.6170712
-1.454765	, %	-0.05154525
-0.1627273	, </s>
-1.786181	, g	-0.3263988
-2.180237	, h
-2.180237	, i
-2.180237	, o
-2.180237	, t
-2.180237	, w
-2.180237	, 三
-2.180237	, 两
-2.180237	, 我
-2.180237	, 明
-2.180237	, 是
-1.454765	, 有
-2.180237	, 泰
-2.180237	, 英
-2.180237	, 还
-1.786181	, 这
-1.517126	- %	0.1242381
-0.1041356	- </s>
-3.281032	- a	-0.3571012
-3.675087	- b
-3.281032	- e
-3.675087	- f
-3.675087	- g
-3.675087	- i
-2.39794	- l	-0.2912828
-2.949615	- n	-0.1121584
-2.949615	- o	-0.32953
-2.49485	- p	-0.5599945
-3.675087	- r
-2.949615	- s	-0.2989722
-3.000425	- t
-3.675087	- u
-2.39794	- 一	-0.04534326
-3.675087	- 三
-3.000425	- 下
-2.585504	- 不	0.02443926
-3.675087	- 世
-3.000425	- 两
-3.281032	- 中
-3.675087	- 之
-3.675087	- 乌
-2.949615	- 也	-0.01918862
-3.675087	- 买
-3.675087	- 二
-3.281032	- 人	-0.3197727
-3.281032	- 什	1.526338
-3.675087	- 从
-2.949615	- 他	-0.01733202
-3.675087	- 以
-3.675087	- 会
-3.281032	- 但	1.032162
-1.950782	- 你	-0.0697875
-3.675087	- 例
-3.675087	- 倾
-3.281032	- 全
-3.675087	- 八
-3.281032	- 公	-0.1353745
-3.675087	- 六
-3.000425	- 其	-0.3127
-3.675087	- 冲
-3.675087	- 出
-3.675087	- 刚
-3.675087	- 到
-3.675087	- 华
-3.281032	- 卖
-3.675087	- 厦
-3.675087	- 变
-3.675087	- 古
-3.675087	- 只
-2.356547	- 可	0.9908161
-3.281032	- 吃
-3.675087	- 合
-3.675087	- 听
-3.675087	- 呃
-3.675087	- 呆
-3.675087	- 周
-3.675087	- 味
-3.675087	- 哪
-3.675087	- 喝
-3.281032	- 回
-2.585504	- 因	0.6540492
-3.675087	- 圣
-3.281032	- 在
-3.281032	- 地	-0.07346907
-3.281032	- 坐
-3.675087	- 夜
-2.676453	- 大	0.04647982
-3.675087	- 太
-2.676453	- 好	-0.1915773
-2.585504	- 如	-0.2286901
-2.49485	- 它	-0.1809385
-3.675087	- 容
-2.49485	- 对	0.09967518
-3.000425	- 小
-3.675087	- 少
-2.119186	- 就	-0.1294522
-3.675087	- 尾
-3.675087	- 岛
-3.675087	- 工
-3.675087	- 差
-3.675087	- 帮
-3.675087	- 弄
-2.949615	- 很	-0.1351425
-3.675087	- 怎
-3.281032	- 总
-2.949615	- 恤	-0.01137775
-3.675087	- 感
-1.906578	- 我	0.05392697
-3.000425	- 所	0.3238489
-3.675087	- 找
-3.675087	- 推
-3.675087	- 提
-3.281032	- 放
-3.000425	- 新	0.5019614
-3.281032	- 旅
-2.585504	- 是
-3.675087	- 普
-3.675087	- 最
-3.000425	- 有
-3.675087	- 柔
-3.675087	- 榴
-3.281032	- 每
-3.000425	- 比	-0.0568286
-2.676453	- 没	0.1158812
-3.675087	- 油
-3.675087	- 海
-3.675087	- 港
-3.675087	- 游
-3.281032	- 滨	0.8178228
-3.675087	- 炮
-2.778567	- 然	0.3264946
-3.675087	- 爸
-3.000425	- 现	0.5879137
-3.675087	- 理
-3.675087	- 生
-3.675087	- 百
-2.949615	- 的
-2.585504	- 看	-0.1068983
-3.675087	- 真
-3.675087	- 知
-3.675087	- 经
-3.675087	- 给
-3.675087	- 统
-3.675087	- 耳
-3.675087	- 能
-3.281032	- 自	0.02535284
-3.675087	- 至
-3.675087	- 花
-3.675087	- 英
-3.675087	- 蓄
-3.000425	- 要
-3.675087	- 计
-3.675087	- 让
-3.675087	- 说
-3.675087	- 距
-3.000425	- 跟
-3.281032	- 路	-0.3263468
-3.281032	- 过
-3.675087	- 还
-1.853872	- 这	-0.15716
-3.675087	- 连
-2.949615	- 通	-0.3472942
-2.221849	- 那	-0.02514458
-3.675087	- 里
-3.675087	- 铜
-3.675087	- 间
-3.675087	- 除
-3.675087	- 隔
-3.675087	- 需
-3.675087	- 青
-3.675087	- 非
-3.675087	- 靠
-3.675087	- 颜
-3.675087	- 飞
-3.281032	- 首	-0.2569227
-3.281032	- 马	0.1188528
-3.675087	- 鱼
-3.675087	- 鸡
-3.675087	- ，
-2.040575	. %
-0.0230653	. </s>
-2.040575	. 乌
-2.040575	. ｛
-0.2771471	/ </s>
-0.2771471	0 6
-1.055298	1 %
-1.055298	1 也
-1.055298	1 吗
-0.3806366	1 的
-0.0795972	2 1	0.1232516
-0.0795972	3 d	-0.2172553
-0.2771471	5 啊
-0.2771471	6 9
-0.578177	9 %
-0.578177	9 差
-0.379447	<s> %	-1.167834
-4.808025	<s> 9
-4.082553	<s> a	-0.09120896
-2.98681	<s> b	-0.2594166
-3.039516	<s> c	-0.1998663
-3.809391	<s> d	-0.3320889
-4.133364	<s> f
-3.627788	<s> g	-0.2793663
-3.06848	<s> h	-0.6976737
-3.38475	<s> i	-0.3490394
-4.133364	<s> j	0.03926983
-4.133364	<s> k	0.08217312
-3.275606	<s> l	-0.7894378
-3.809391	<s> m	-0.1583083
-3.718442	<s> n	-0.3542147
-2.448093	<s> o	-1.564019
-3.576636	<s> p	-0.3551002
-3.911505	<s> r	-0.3087523
-3.188456	<s> s	0.03391442
-2.98681	<s> t	-0.4195077
-3.809391	<s> u	-0.4630167
-3.718442	<s> v	-0.3712735
-4.808025	<s> w
-3.809391	<s> y	-0.1189446
-4.808025	<s> 。
-2.102743	<s> 一	0.03126246
-3.08372	<s> 七	-0.2569498
-3.911505	<s> 万	-0.1229273
-2.76745	<s> 三	-0.01495221
-3.326758	<s> 上	-0.153046
-3.208659	<s> 下	-0.3148353
-2.117579	<s> 不	-0.07449144
-4.133364	<s> 专	0.331345
-3.911505	<s> 世	0.2224708
-3.489486	<s> 东	-0.201764
-2.760026	<s> 两	-0.1667923
-4.808025	<s> 严
-4.082553	<s> 个	-0.1430255
-2.918094	<s> 中	-0.3273355
-3.809391	<s> 丹	-0.136051
-3.16915	<s> 为	-1.041228
-3.530878	<s> 主	0.09186095
-4.808025	<s> 久
-3.809391	<s> 之	0.2645791
-3.115905	<s> 乌	0.2872262
-4.133364	<s> 乘	-0.3898099
-3.576636	<s> 九	-0.0367881
-2.332221	<s> 也	-0.06975359
-4.41397	<s> 习
-4.808025	<s> 乡
-3.354787	<s> 买	-0.06480569
-4.41397	<s> 乱
-3.627788	<s> 了	-0.4297032
-3.06848	<s> 二	-0.8386507
-4.41397	<s> 云	-0.1861373
-2.831908	<s> 五	-0.2821908
-4.41397	<s> 亚
-4.808025	<s> 些
-3.911505	<s> 交	-0.2361671
-4.808025	<s> 亭
-4.808025	<s> 亮
-3.132938	<s> 人	-0.3279347
-3.053757	<s> 什	0.3932449
-3.809391	<s> 今	-0.07864949
-4.133364	<s> 介	0.9000559
-2.78269	<s> 从	-0.06101406
-2.351901	<s> 他	0.03838277
-4.082553	<s> 代	-0.09568918
-3.188456	<s> 以	-0.623489
-4.808025	<s> 们
-4.41397	<s> 仰	-0.2791722
-3.718442	<s> 价	-0.07574594
-4.808025	<s> 伊
-4.808025	<s> 休
-3.012364	<s> 会	-0.1300854
-4.133364	<s> 传
-2.513845	<s> 但	0.01661646
-4.808025	<s> 位
-4.133364	<s> 低	-0.2036455
-3.229848	<s> 住	0.06069028
-4.808025	<s> 体
-4.808025	<s> 余
-3.38475	<s> 佛	-0.277149
-4.133364	<s> 作	-0.1763339
-1.530878	<s> 你	-0.1296448
-4.133364	<s> 例	-0.4300522
-4.133364	<s> 侧	0.4123416
-4.41397	<s> 便
-4.133364	<s> 保
-4.082553	<s> 信	-0.3284543
-4.808025	<s> 俯
-4.133364	<s> 倒	-0.01596512
-4.808025	<s> 倘
-4.133364	<s> 值	0.3402998
-4.082553	<s> 假	-0.1220187
-4.808025	<s> 偏
-3.627788	<s> 做	-0.1282075
-4.082553	<s> 偶	0.2228515
-4.41397	<s> 储	-0.1666191
-2.806602	<s> 像	-0.04963641
-4.41397	<s> 儿	-0.2597802
-4.133364	<s> 元	-0.1826596
-4.808025	<s> 充
-3.718442	<s> 先	-0.06660677
-4.133364	<s> 光	-0.496572
-3.718442	<s> 克	-0.2814522
-3.530878	<s> 免	-0.2174839
-4.133364	<s> 兑	0.6042271
-3.576636	<s> 入	-0.4484694
-3.530878	<s> 全	-0.05236785
-3.188456	<s> 八	-0.1975765
-3.132938	<s> 公	-0.06741607
-3.132938	<s> 六	-0.03086865
-3.354787	<s> 兰	-0.6229278
-4.808025	<s> 关
-4.082553	<s> 兴	-0.0765148
-2.667555	<s> 其	0.2100716
-2.724698	<s> 再	-0.4620748
-4.41397	<s> 农
-4.808025	<s> 冲
-3.911505	<s> 几	-0.1029355
-4.808025	<s> 凡
-4.808025	<s> 凤
-3.489486	<s> 出	0.07295652
-3.718442	<s> 分	-0.1531756
-4.41397	<s> 切	-0.1957344
-2.939814	<s> 刚	-0.2733957
-4.808025	<s> 初
-4.41397	<s> 别
-2.731538	<s> 到	-0.1656009
-4.808025	<s> 券
-4.133364	<s> 刺	-0.1444763
-3.809391	<s> 前	-0.06039289
-4.41397	<s> 剧	0.1914034
-4.082553	<s> 办	-0.3739636
-3.576636	<s> 加	-0.2535845
-3.38475	<s> 动	-0.2461966
-3.489486	<s> 劳	-0.1561216
-3.300429	<s> 包	-0.1648139
-3.489486	<s> 北	-0.5958827
-4.41397	<s> 医
-4.808025	<s> 匿
-2.849637	<s> 十	-0.07537583
-4.41397	<s> 千
-4.808025	<s> 升
-4.808025	<s> 午
-3.718442	<s> 半	-0.280699
-3.229848	<s> 华	-0.2094846
-4.082553	<s> 卓	0.9666128
-4.082553	<s> 单	-0.1213862
-4.082553	<s> 卖	-0.1275953
-3.354787	<s> 南	-0.1718022
-4.41397	<s> 博	0.8592155
-4.082553	<s> 卡	-0.2257578
-3.326758	<s> 印	-0.3425989
-4.808025	<s> 却
-4.133364	<s> 历	0.2504908
-3.576636	<s> 原	0.1415193
-3.489486	<s> 厦	-0.3233063
-2.918094	<s> 去	-0.05129142
-4.133364	<s> 参
-3.576636	<s> 又	-0.03885904
-3.911505	<s> 双	0.3912975
-3.576636	<s> 反	0.1456959
-4.41397	<s> 发
-4.808025	<s> 受
-3.451697	<s> 变	-0.5910646
-4.808025	<s> 口
-3.451697	<s> 另	-0.2010936
-2.814875	<s> 只	-0.6295276
-2.76745	<s> 叫	-0.1060222
-2.131204	<s> 可	-0.04698431
-4.41397	<s> 台
-4.133364	<s> 史
-4.41397	<s> 右
-4.808025	<s> 叶
-4.808025	<s> 叻
-3.053757	<s> 吃	-0.09235455
-3.416935	<s> 各	-0.4153042
-4.082553	<s> 合	-0.3122123
-4.808025	<s> 吉
-4.808025	<s> 吊
-4.082553	<s> 同	-0.3065134
-3.809391	<s> 名	-0.3482954
-3.275606	<s> 后	-0.7982726
-4.808025	<s> 吐
-4.808025	<s> 吧
-3.911505	<s> 含	-0.01233283
-3.252125	<s> 听	0.09872934
-2.951095	<s> 呃	-0.666633
-4.808025	<s> 呆
-4.808025	<s> 告
-4.133364	<s> 周
-4.41397	<s> 味	-0.1225052
-3.911505	<s> 呵	-0.4910994
-4.808025	<s> 呼
-4.808025	<s> 命
-4.082553	<s> 和
-3.576636	<s> 咖	-0.0147233
-4.808025	<s> 咱
-4.808025	<s> 咳
-4.808025	<s> 咸
-4.41397	<s> 品
-3.911505	<s> 哇	0.03994149
-4.41397	<s> 哎	-0.2522151
-2.410304	<s> 哦	-0.5613499
-3.188456	<s> 哪	0.2854516
-3.300429	<s> 唉	-0.5120474
-3.489486	<s> 唐	0.6842468
-4.808025	<s> 唯
-4.808025	<s> 唱
-4.808025	<s> 啄
-3.627788	<s> 商	0.0186404
-2.918094	<s> 啊	-0.8122771
-3.099514	<s> 喂	-0.3190216
-4.808025	<s> 善
-4.41397	<s> 喜	0.9204851
-3.627788	<s> 喝	-0.004297689
-4.133364	<s> 喷	-0.3847775
-2.126045	<s> 嗯	-0.9749324
-4.133364	<s> 嘴	-0.08494345
-2.78269	<s> 四	-0.1261616
-3.416935	<s> 回	-0.06080024
-2.059587	<s> 因	-0.7198504
-4.082553	<s> 固	0.6213791
-3.208659	<s> 国	-0.3243285
-4.808025	<s> 图
-3.576636	<s> 土	0.1262435
-2.951095	<s> 圣	0.4747379
-2.37859	<s> 在	-0.13133
-2.918094	<s> 地	-0.7591172
-2.86812	<s> 坐	-0.1342904
-4.808025	<s> 块
-4.082553	<s> 坡	-0.3294314
-4.808025	<s> 埃
-4.082553	<s> 基	0.01931906
-4.808025	<s> 填
-4.808025	<s> 增
-4.808025	<s> 墨
-4.41397	<s> 壮
-4.808025	<s> 处
-4.41397	<s> 夏	0.4198828
-3.576636	<s> 外	-0.1602637
-3.416935	<s> 多	-0.1007753
-3.627788	<s> 夜	-0.1530582
-4.41397	<s> 够
-2.400544	<s> 大	-0.3308676
-3.489486	<s> 天	-0.2274659
-3.718442	<s> 太
-4.41397	<s> 头
-4.41397	<s> 夸	0.1673462
-3.911505	<s> 套	-0.327068
-4.082553	<s> 女	-0.1561219
-4.133364	<s> 奶	-0.1227716
-3.275606	<s> 她	-0.01673724
-1.999399	<s> 好	-0.4331917
-2.094716	<s> 如	-1.407299
-3.627788	<s> 妈	-0.09120715
-3.489486	<s> 妳	-0.09672015
-4.808025	<s> 姐
-4.808025	<s> 姓
-4.082553	<s> 姜	-0.05785491
-3.530878	<s> 娘	0.01223445
-4.808025	<s> 娱
-4.808025	<s> 孔
-4.082553	<s> 孙	0.4294935
-4.41397	<s> 学	-0.1778124
-1.807423	<s> 它	-0.101702
-4.082553	<s> 安	-0.08138553
-4.133364	<s> 完	-0.1355034
-4.133364	<s> 宏	-0.0880189
-4.41397	<s> 宗
-4.133364	<s> 官	-0.2412959
-4.808025	<s> 实
-4.808025	<s> 客
-4.082553	<s> 室	-0.06594524
-4.41397	<s> 家
-4.133364	<s> 宿	-0.4091895
-4.082553	<s> 富	-0.1937558
-1.531313	<s> 对	-0.4775609
-4.808025	<s> 导
-4.808025	<s> 寿
-4.41397	<s> 将
-2.806602	<s> 小	-0.2529605
-3.809391	<s> 少	-0.2258179
-4.808025	<s> 尝
-4.808025	<s> 尤
-1.409975	<s> 就	-0.1089578
-4.808025	<s> 尽
-4.808025	<s> 尾
-4.808025	<s> 屋
-4.133364	<s> 属	0.6799478
-4.133364	<s> 山	-0.5036433
-3.911505	<s> 岛	-0.6297665
-4.41397	<s> 工
-4.082553	<s> 左
-4.808025	<s> 巨
-3.188456	<s> 差	0.01279688
-4.133364	<s> 已	0.122307
-3.809391	<s> 巴	-0.2664648
-3.326758	<s> 市	-0.6229101
-4.808025	<s> 布
-4.133364	<s> 希	0.6042271
-3.627788	<s> 带	-0.114277
-4.41397	<s> 帮	0.06086084
-4.41397	<s> 常
-4.41397	<s> 干
-3.38475	<s> 平	-0.1602792
-3.911505	<s> 年
-3.718442	<s> 广	-0.09015405
-3.039516	<s> 应	0.01116502
-4.808025	<s> 底
-3.911505	<s> 店
-4.082553	<s> 庙	-0.2780909
-4.41397	<s> 度
-4.082553	<s> 建	-0.09485221
-3.530878	<s> 开	-0.112189
-3.012364	<s> 当	-0.1636244
-4.41397	<s> 影	-0.09181598
-4.082553	<s> 往
-4.41397	<s> 待	0.009708315
-2.397339	<s> 很	-0.1129053
-4.808025	<s> 得
-3.911505	<s> 德	0.4536595
-4.808025	<s> 必
-4.808025	<s> 忘
-4.808025	<s> 快
-3.115905	<s> 怎	-0.5954294
-4.808025	<s> 怕
-4.808025	<s> 怡
-3.809391	<s> 总	-0.07205631
-4.808025	<s> 恰
-4.133364	<s> 您	-0.1170595
-4.808025	<s> 情
-4.808025	<s> 惨
-4.808025	<s> 惯
-3.188456	<s> 想	-0.1186519
-4.808025	<s> 意
-3.809391	<s> 感	0.2062961
-4.082553	<s> 慢	-0.1083491
-4.808025	<s> 懂
-4.808025	<s> 戏
-3.911505	<s> 成	-0.09986746
-1.727421	<s> 我	-0.02488869
-2.354787	<s> 或	0.02153957
-4.808025	<s> 截
-4.133364	<s> 戴	0.06416589
-4.133364	<s> 房	0.02277566
-1.974576	<s> 所	-0.7753091
-4.41397	<s> 手
-3.489486	<s> 才	-0.3207891
-4.41397	<s> 打
-4.082553	<s> 找
-3.326758	<s> 把	0.1259916
-4.808025	<s> 投
-4.808025	<s> 抽
-3.911505	<s> 拍	0.01402923
-3.354787	<s> 拜	-0.5710393
-4.808025	<s> 指
-4.808025	<s> 按
-4.808025	<s> 挖
-3.099514	<s> 挺	0.1291654
-4.808025	<s> 捞
-3.911505	<s> 捡	-0.139257
-3.489486	<s> 换	-0.07421605
-4.808025	<s> 捧
-4.808025	<s> 掉
-4.133364	<s> 排	-0.1928417
-4.808025	<s> 接
-4.133364	<s> 控	0.6201406
-4.808025	<s> 推
-4.133364	<s> 提	-0.1541418
-3.809391	<s> 搭
-4.808025	<s> 摆
-4.082553	<s> 摩	0.6608875
-3.911505	<s> 收	0.1367568
-4.082553	<s> 改	-0.2673409
-3.911505	<s> 放	-0.1989211
-4.41397	<s> 政	0.003459364
-4.133364	<s> 散	0.06015909
-4.808025	<s> 数
-4.082553	<s> 整	0.1385322
-3.911505	<s> 文
-4.082553	<s> 斑	-0.1698341
-4.41397	<s> 斜	0.7556748
-4.41397	<s> 斯
-2.280458	<s> 新	-0.005921841
-3.911505	<s> 方	-0.1531983
-4.082553	<s> 旁	0.2593926
-3.300429	<s> 旅	-0.1995612
-4.808025	<s> 旋
-4.41397	<s> 既	0.4177621
-3.718442	<s> 日	-0.1929567
-4.41397	<s> 旧	-0.09295401
-3.530878	<s> 早	-0.1474027
-3.911505	<s> 时	-0.5845959
-3.115905	<s> 明	-0.7459666
-4.808025	<s> 星
-4.133364	<s> 春	0.318437
-2.007132	<s> 是	-0.243728
-3.326758	<s> 晚	-0.5472113
-3.576636	<s> 普	0.2571689
-4.133364	<s> 景	-0.183113
-4.808025	<s> 更
-2.806602	<s> 最	0.1252981
-4.808025	<s> 月
-1.784244	<s> 有	-0.3410328
-4.808025	<s> 朋
-3.809391	<s> 服	-0.118877
-4.41397	<s> 期	-0.3420171
-3.911505	<s> 木	-0.3409475
-4.808025	<s> 未
-3.576636	<s> 本	-0.2874808
-4.808025	<s> 朱
-3.809391	<s> 机	-0.5172907
-4.41397	<s> 杂
-2.775003	<s> 来	-0.2834752
-4.082553	<s> 林	-0.09812993
-4.41397	<s> 果
-4.808025	<s> 某
-4.133364	<s> 柔	0.002167106
-4.41397	<s> 柠	0.7817054
-4.808025	<s> 查
-4.133364	<s> 标	0.2433898
-4.808025	<s> 核
-4.808025	<s> 根
-4.808025	<s> 桔
-4.808025	<s> 桥
-4.41397	<s> 梁	0.1673462
-4.808025	<s> 椅
-3.576636	<s> 植	0.5910646
-3.911505	<s> 椰	0.0356
-4.133364	<s> 楼	-0.4958578
-3.354787	<s> 榴	0.5282737
-3.911505	<s> 樟	0.5809022
-4.133364	<s> 欢	-0.483909
-3.911505	<s> 欧	-0.07192002
-4.41397	<s> 歌
-4.133364	<s> 正	-0.08726265
-4.082553	<s> 步	-0.02184314
-4.082553	<s> 武	0.302588
-4.808025	<s> 母
-3.416935	<s> 每	0.2702632
-2.290329	<s> 比	-0.2562124
-4.41397	<s> 毕	0.05670488
-4.133364	<s> 民	-0.1981115
-4.41397	<s> 气	-0.3370945
-4.082553	<s> 水	-0.1367569
-4.808025	<s> 汇
-4.808025	<s> 汗
-4.808025	<s> 污
-4.808025	<s> 汤
-3.627788	<s> 沙	-0.2285858
-4.808025	<s> 沟
-2.530878	<s> 没	-0.2769873
-4.082553	<s> 河	-0.08814511
-4.133364	<s> 油	-0.06754845
-4.41397	<s> 治	-0.05723849
-4.41397	<s> 沾
-4.808025	<s> 沿
-4.808025	<s> 注
-4.41397	<s> 泳	-0.04614949
-4.808025	<s> 洗
-4.808025	<s> 活
-2.76745	<s> 海	-0.1737993
-3.911505	<s> 消	0.4536595
-3.229848	<s> 淡	-0.07065648
-4.808025	<s> 深
-3.809391	<s> 混	0.00923875
-3.718442	<s> 清	0.268366
-3.627788	<s> 渔	0.5228787
-4.41397	<s> 温
-3.809391	<s> 港	-0.552755
-3.354787	<s> 游	-0.189816
-4.133364	<s> 湖
-4.41397	<s> 湾
-4.082553	<s> 滑	-0.09327055
-4.41397	<s> 满	-0.1726319
-3.38475	<s> 滨	0
-4.133364	<s> 漂	0.976613
-4.808025	<s> 潮
-4.808025	<s> 火
-4.808025	<s> 灯
-4.808025	<s> 炖
-4.808025	<s> 炸
-4.808025	<s> 点
-4.808025	<s> 烟
-3.576636	<s> 烤	-0.237116
-4.133364	<s> 烧	0.01440156
-4.082553	<s> 热	-0.3682113
-1.515938	<s> 然	-1.663036
-4.808025	<s> 煎
-4.082553	<s> 照	0.1425973
-3.627788	<s> 煮	0.03427498
-4.41397	<s> 熊
-4.808025	<s> 熬
-4.808025	<s> 爆
-4.133364	<s> 爬	-0.03614554
-4.808025	<s> 爱
-3.911505	<s> 爸	-0.4402871
-3.115905	<s> 牛	0.1251918
-3.326758	<s> 特	0.6900066
-3.16915	<s> 狮	-0.9100367
-4.808025	<s> 猎
-4.808025	<s> 猜
-4.41397	<s> 猩	-0.1244889
-3.451697	<s> 猪	-0.5309966
-4.808025	<s> 猴
-4.808025	<s> 王
-3.718442	<s> 玩	-0.1513784
-3.252125	<s> 环	0.06113088
-2.667555	<s> 现	-0.4324783
-4.133364	<s> 珍	-0.1544089
-4.808025	<s> 琳
-4.808025	<s> 瓶
-4.808025	<s> 甚
-3.718442	<s> 甜	-0.05789
-3.809391	<s> 生	-0.3945033
-3.416935	<s> 用	-0.06083865
-3.38475	<s> 电	-0.161587
-4.41397	<s> 男
-4.082553	<s> 画	0.2459734
-4.808025	<s> 留
-4.808025	<s> 疯
-3.208659	<s> 白	-0.4207335
-3.489486	<s> 百	-0.2374199
-2.918094	<s> 的	-0.1198852
-4.808025	<s> 皆
-4.808025	<s> 皮
-4.808025	<s> 盖
-4.082553	<s> 目	-0.320629
-3.911505	<s> 直	0.07932782
-3.718442	<s> 相	-0.05734919
-4.808025	<s> 省
-2.214908	<s> 看	-0.3667806
-3.576636	<s> 真	-0.2450786
-4.133364	<s> 眼	0.1210101
-4.808025	<s> 着
-4.808025	<s> 睡
-3.576636	<s> 知	0.1176395
-4.133364	<s> 短	-0.1010418
-4.808025	<s> 石
-4.133364	<s> 码	0.6341904
-4.082553	<s> 确	0.1771425
-4.808025	<s> 碧
-4.41397	<s> 碰	0.3950592
-4.808025	<s> 碳
-4.41397	<s> 礼
-4.808025	<s> 祝
-4.808025	<s> 禁
-3.627788	<s> 福	-0.2688453
-4.41397	<s> 离
-4.082553	<s> 私	0.3667569
-4.133364	<s> 种
-4.808025	<s> 租
-4.808025	<s> 称
-4.41397	<s> 移	0.7556748
-4.41397	<s> 稀
-4.808025	<s> 程
-3.300429	<s> 稍	0.6443617
-4.808025	<s> 穆
-3.576636	<s> 空	-0.08464091
-4.41397	<s> 穿
-4.808025	<s> 立
-4.808025	<s> 站
-4.808025	<s> 章
-4.808025	<s> 端
-3.039516	<s> 第	0.4670284
-3.132938	<s> 等	-0.2121229
-4.808025	<s> 简
-3.718442	<s> 算	0.02921681
-3.809391	<s> 类	-0.4392066
-4.808025	<s> 粉
-4.41397	<s> 粤	0.4178089
-4.41397	<s> 粽	0.8178228
-4.41397	<s> 糕	-0.243693
-4.808025	<s> 糯
-4.808025	<s> 紧
-3.576636	<s> 紫	0.9585444
-4.41397	<s> 繁	0.003459364
-3.718442	<s> 红	-0.1098981
-3.809391	<s> 纪	-0.1146829
-4.41397	<s> 纽
-4.808025	<s> 组
-4.082553	<s> 经	-0.08520073
-3.38475	<s> 结	-0.5042549
-4.41397	<s> 绕
-3.053757	<s> 给	-0.03934574
-4.808025	<s> 绝
-4.133364	<s> 综	0.9204971
-3.627788	<s> 绿	-0.1031267
-4.808025	<s> 缅
-3.911505	<s> 缆	0.6704623
-4.41397	<s> 网	-0.2801813
-4.808025	<s> 罚
-4.082553	<s> 羊	0.4529746
-3.809391	<s> 美	-0.004517883
-3.354787	<s> 老	-0.1404913
-2.760026	<s> 而	-0.637085
-4.808025	<s> 聘
-2.928818	<s> 肉	-0.875558
-4.808025	<s> 肚
-4.808025	<s> 股
-4.082553	<s> 肯	0.6793711
-4.133364	<s> 背	0.07917221
-4.41397	<s> 胡	-0.2063774
-4.082553	<s> 能
-4.808025	<s> 脚
-4.41397	<s> 脱
-3.416935	<s> 自	-0.2054481
-4.133364	<s> 至	-0.1897184
-4.133364	<s> 舍	-0.3685397
-4.808025	<s> 船
-4.133364	<s> 艺	0.1113116
-4.808025	<s> 芋
-3.809391	<s> 花	-0.04934182
-4.808025	<s> 若
-3.530878	<s> 英	1.056106
-4.808025	<s> 苹
-4.808025	<s> 茁
-3.911505	<s> 茶	-0.05034257
-4.808025	<s> 草
-4.133364	<s> 药
-4.082553	<s> 莱	0.3598576
-4.808025	<s> 莲
-4.133364	<s> 菜
-4.082553	<s> 菠	0.6213791
-4.808025	<s> 菱
-4.133364	<s> 萝	-0.3134216
-4.808025	<s> 著
-4.808025	<s> 葱
-4.41397	<s> 蒜	0.7024293
-4.808025	<s> 蓝
-4.41397	<s> 薰	0.4177621
-4.808025	<s> 藤
-4.808025	<s> 虎
-4.082553	<s> 虽	0.475251
-4.808025	<s> 蚊
-4.41397	<s> 蛤
-3.809391	<s> 蛮
-4.41397	<s> 蜂	0.4177621
-4.808025	<s> 蜡
-4.082553	<s> 螃	1.528329
-4.808025	<s> 蟑
-3.039516	<s> 行	-0.6493069
-4.133364	<s> 街
-4.133364	<s> 衣	0.06015909
-4.808025	<s> 补
-4.082553	<s> 表	0.1071196
-4.808025	<s> 袋
-4.808025	<s> 被
-4.808025	<s> 装
-4.133364	<s> 裕	-0.07559812
-4.808025	<s> 裙
-4.133364	<s> 西
-2.877666	<s> 要	-0.1048391
-4.082553	<s> 观	-0.08319475
-4.808025	<s> 规
-4.133364	<s> 觉	-0.169515
-4.41397	<s> 计
-4.41397	<s> 订
-3.326758	<s> 让	0.0169127
-4.133364	<s> 记	-0.1229126
-4.082553	<s> 讲
-4.133364	<s> 设	-0.1527348
-4.133364	<s> 话
-4.41397	<s> 该
-4.808025	<s> 语
-3.451697	<s> 说	-0.08570574
-3.627788	<s> 请	-0.1826023
-4.808025	<s> 诺
-4.808025	<s> 谁
-4.808025	<s> 调
-3.229848	<s> 谢	-1.039939
-4.133364	<s> 豆	0.3331603
-4.808025	<s> 贝
-4.133364	<s> 货	-0.1414404
-3.911505	<s> 质	-0.1112586
-3.38475	<s> 购	-0.1219944
-3.627788	<s> 贵	-0.5060775
-4.41397	<s> 费	-0.2559375
-4.808025	<s> 资
-3.809391	<s> 赌	0.5429078
-3.354787	<s> 走	-0.1761552
-3.911505	<s> 超	0.4014053
-4.808025	<s> 趟
-4.808025	<s> 足
-4.133364	<s> 距	0.5187969
-2.89741	<s> 跟	0.1400568
-4.082553	<s> 路	-0.3056173
-4.41397	<s> 跳	0.2157628
-4.808025	<s> 踏
-4.808025	<s> 踩
-3.911505	<s> 车	-0.104638
-3.627788	<s> 转	-0.08269829
-3.809391	<s> 轻	-0.002634883
-4.808025	<s> 载
-4.808025	<s> 辅
-4.808025	<s> 输
-3.208659	<s> 辣	-0.9128499
-3.229848	<s> 过	-0.07492086
-4.133364	<s> 近	-0.190343
-2.027087	<s> 还	-0.3082175
-1.362086	<s> 这	0.1428889
-3.718442	<s> 进	0.1554387
-4.808025	<s> 远
-3.911505	<s> 连
-4.41397	<s> 迪	-0.2671754
-4.133364	<s> 退	0.1235907
-4.41397	<s> 送	-0.3309729
-4.808025	<s> 选
-4.808025	<s> 递
-2.951095	<s> 通	-0.9376716
-4.808025	<s> 逛
-4.41397	<s> 速	0.5959741
-4.808025	<s> 造
-4.41397	<s> 逼	-0.2513914
-4.808025	<s> 逾
-4.808025	<s> 遇
-4.808025	<s> 道
-1.404747	<s> 那	0.2075679
-4.41397	<s> 邬	0.9841542
-4.133364	<s> 邻
-4.41397	<s> 郊
-2.357692	<s> 都	-0.1049813
-3.809391	<s> 配
-3.150667	<s> 酒	0.1790431
-4.41397	<s> 酱
-4.133364	<s> 酸	-0.4459547
-4.41397	<s> 酿
-3.025728	<s> 里	-1.319125
-4.808025	<s> 重
-4.133364	<s> 野	-0.1725422
-3.252125	<s> 金	-0.2796365
-4.808025	<s> 针
-4.41397	<s> 钟	-0.3344656
-4.808025	<s> 钢
-4.41397	<s> 铁	-0.3534593
-3.809391	<s> 银	-0.09294124
-4.808025	<s> 锁
-4.41397	<s> 锡
-4.133364	<s> 长
-3.576636	<s> 门	-0.6509086
-4.41397	<s> 问
-4.133364	<s> 闽	0.9494608
-4.808025	<s> 防
-3.718442	<s> 阿	0.122256
-4.133364	<s> 附	0.4312269
-3.275606	<s> 除	0.09570128
-4.082553	<s> 随	-0.1198378
-4.082553	<s> 隔	-0.05209965
-4.41397	<s> 难
-4.41397	<s> 雨	-0.2871778
-4.808025	<s> 零
-3.489486	<s> 需	0.4360301
-4.082553	<s> 青
-3.115905	<s> 非	-0.06794786
-3.38475	<s> 靠	0.3177657
-3.627788	<s> 面	-0.126897
-4.41397	<s> 鞋	0.1003694
-4.41397	<s> 音	-0.1364197
-4.808025	<s> 顶
-4.808025	<s> 项
-4.808025	<s> 顺
-4.41397	<s> 预
-4.808025	<s> 额
-4.082553	<s> 风	0.09984536
-3.275606	<s> 飞	0.07398486
-3.809391	<s> 食	-0.1008615
-4.082553	<s> 餐	-0.06822792
-4.133364	<s> 饭	-0.5117062
-4.41397	<s> 饮
-4.808025	<s> 饰
-4.808025	<s> 饿
-3.489486	<s> 香	-0.4789331
-3.132938	<s> 马	-0.4436975
-3.530878	<s> 高	-0.1072873
-2.760026	<s> 鱼	-0.4603097
-4.41397	<s> 鲨	0.4178089
-4.808025	<s> 鳄
-4.133364	<s> 鸟	-0.03481644
-3.115905	<s> 鸡	-0.02700263
-4.808025	<s> 鸭
-4.41397	<s> 麦	-0.1666191
-4.41397	<s> 麻	0.2437916
-3.911505	<s> 黄	0.1424501
-3.530878	<s> 黑	0.01606292
-4.808025	<s> 鼓
-2.086833	<s> ％	-0.616992
-4.808025	<s> ，
-4.808025	<s> Ｏ
-2.760026	<s> ［	-0.1057642
-2.775003	<s> ｛	0.1994476
-0.01785023	? </s>
-2.450333	? 你
-2.450333	? 然
-2.450333	? 还
-1.775672	? 这	-0.1919432
-0.2771471	[ </s>
-0.2771471	] %
-2.207095	a %	-0.1629602
-3.296679	a ,
-2.571206	a -
-2.400159	a .	0.5449897
-2.622017	a ?	0.8531341
-1.84344	a b	-0.5384496
-1.905588	a c	-0.1126496
-1.256104	a d	-0.3806707
-3.296679	a e
-1.740778	a f	-0.6291175
-1.789083	a g	-0.779429
-1.677109	a h	-0.6150911
-1.84344	a i	-0.5794972
-1.376079	a k	-1.292502
-1.287138	a l	-0.6161982
-1.588168	a m	-0.2958563
-0.9476497	a n	-0.5338711
-3.296679	a o
-1.514382	a p	-0.2071299
-2.902623	a q	0.294944
-0.8859928	a r	-0.7841952
-1.24868	a s	-0.4761286
-1.366319	a t	-0.7374794
-1.697312	a u	-0.8546138
-1.677109	a v	-1.097035
-2.902623	a w
-2.902623	a x	-0.3316292
-0.6911521	a y	-0.5625232
-2.622017	a z	-0.4007353
-3.296679	a ~
-1.52817	a 。	0.6804911
-3.296679	a 也
-3.296679	a 价
-3.296679	a 吗
-3.296679	a 呢
-3.296679	a 咖
-3.296679	a 哦
-3.296679	a 地
-3.296679	a 就
-2.298045	a 是	-0.06003703
-3.296679	a 梦
-2.902623	a 比	0.1093295
-2.116442	a 的	-0.1418121
-2.622017	a 这	0.1664955
-2.902623	a 都
-2.571206	a 酒	0.3095525
-3.296679	a 饭
-1.815412	a ，	-0.1767346
-2.902623	a ？
-2.239117	b %
-2.633173	b -
-0.7225574	b a	-1.21836
-2.633173	b b
-2.633173	b d
-1.013603	b e	-0.9402865
-1.452936	b i	-0.3870223
-1.401783	b l	-0.9277125
-0.8508759	b o	-0.994756
-1.634539	b r	-0.4533859
-0.9580858	b u	-0.7302085
-0.5431125	b y	-1.722939
-1.634539	b 。	0.7723874
-2.239117	b 的
-1.958511	b ，	-0.3390937
-2.633173	b ？
-2.702029	c -
-0.93352	c a	-0.4373702
-2.702029	c b
-1.976556	c c	-0.2690593
-1.082459	c e	-0.4535703
-2.307973	c f	-0.3249871
-0.4954627	c h	-1.288645
-0.8685791	c i	-0.7830101
-1.123852	c k	-0.239519
-1.082459	c l	-1.198318
-0.8934027	c o	-0.4394675
-2.307973	c r	-0.3094543
-1.976556	c t	-0.3042375
-2.702029	c 。
-2.702029	c ，
-1.674713	d %	-0.02936041
-2.673347	d ,
-2.673347	d -
-2.673347	d </s>
-2.279291	d ?	1.036767
-1.140927	d a	-0.3471073
-2.279291	d c	-0.2988748
-0.6038076	d e	-1.060582
-1.396199	d g	-0.5783548
-1.674713	d h	-0.7563925
-1.220108	d i	-0.5128028
-2.673347	d l
-2.279291	d m
-1.947874	d o	-0.3276174
-1.493109	d p	-0.2673878
-1.220108	d r	-0.8123897
-1.674713	d s	-0.1167694
-1.583763	d u	-0.3583061
-2.673347	d v
-2.279291	d w	-0.2651514
-1.998685	d y	-0.08368197
-2.673347	d ~
-0.981226	d 。	0.2305042
-2.673347	d 变
-2.279291	d 呢	0.02431506
-1.947874	d 啊	0.0964787
-2.279291	d 啦
-2.673347	d 它
-2.279291	d 就	0.01288167
-1.250071	d 的	-0.1628363
-2.673347	d 这
-1.053777	d ，	-0.1138914
-2.091427	e %	-0.145919
-2.696005	e ,
-2.364588	e -	0.5280201
-2.193541	e .	0.5449897
-3.09006	e </s>
-2.696005	e ?	1.036767
-1.53416	e a	-0.4752591
-1.38155	e b	-1.300647
-1.812913	e c	-0.3055073
-2.696005	e d
-1.582464	e e	-0.1736745
-1.582464	e f	-0.3896018
-1.909823	e g	-0.4862013
-1.350515	e h	-0.36465
-1.858671	e i	-0.3078682
-3.09006	e j
-3.09006	e k
-0.8261416	e l	-0.5024952
-2.415399	e m
-0.8635234	e n	-0.4523965
-2.193541	e o	-0.171955
-2.696005	e p
-1.858671	e q	-0.3467875
-0.7484553	e r	-0.4789575
-1.321552	e s	-0.4562416
-1.432702	e t	-0.3176653
-1.812913	e v	-0.7546123
-2.193541	e w	-0.1004389
-1.909823	e x	-0.1002761
-2.364588	e z	-0.1910475
-2.364588	e ~	-0.2177664
-1.189664	e 。	0.01200902
-3.09006	e 三
-3.09006	e 了
-3.09006	e 吗
-3.09006	e 哦
-2.193541	e 啊	0.0001630485
-3.09006	e 四
-3.09006	e 好
-2.696005	e 就
-2.696005	e 手	-0.2356965
-2.193541	e 的	-0.1943467
-3.09006	e 这
-2.696005	e 那
-1.557641	e ，	-0.1429626
-2.363507	f 1
-2.363507	f </s>
-1.132117	f a	-0.2071028
-1.969451	f e
-1.18327	f f	-0.4201396
-2.363507	f h
-1.08636	f i	-0.3374539
-1.132117	f l	-0.2018498
-0.5548809	f o	-1.477874
-0.6713865	f r	-1.378357
-2.363507	f s
-1.044967	f t	-0.3794031
-1.466987	f u	-0.3453702
-1.969451	f 。	1.287209
-1.969451	f ，
-2.209427	g -
-0.9283959	g a	-0.7032503
-1.247155	g b	-0.6988211
-2.603483	g c
-1.878011	g d	-0.5105667
-0.8791778	g e	-0.5266849
-2.209427	g g	-0.3219672
-1.212392	g h	-0.8609013
-0.7242759	g i	-0.8378892
-1.095887	g l	-1.066821
-1.372093	g m	-0.4725646
-1.150245	g o	-0.3893504
-1.706963	g p	-0.5997902
-1.604849	g r	-0.4638724
-0.9839132	g u	-1.276944
-1.706963	g 。	0.9041605
-2.603483	g 了
-2.603483	g 就
-2.603483	g 是
-2.603483	g 的
-2.209427	g ，	-0.324339
-2.424671	h %
-2.093254	h &	0.09304756
-2.818726	h ,
-2.093254	h .	0.7615578
-0.4885008	h a	-0.8971024
-2.424671	h b	-0.3480748
-0.9617956	h e	-0.767775
-0.9617956	h i	-0.5133699
-1.587337	h k	-0.9622114
-2.144065	h l	-0.4144529
-2.818726	h m
-0.6277654	h o	-1.027509
-1.427636	h r	-0.772828
-2.093254	h t	-0.3275966
-2.144065	h u	-0.538133
-1.500187	h 。	0.5662963
-2.818726	h 也
-2.818726	h 动
-2.818726	h 吗
-2.818726	h 呵
-2.424671	h 啊
-2.818726	h 嘛
-2.424671	h 就	0.01288167
-2.818726	h 是
-2.818726	h 的
-1.729143	h ，
-2.424671	h ？	0.8132933
-2.556112	i %
-1.673021	i '	-0.7168816
-1.49693	i -	-0.4874709
-2.950168	i .
-2.950168	i ?
-1.468901	i a	-0.9250896
-1.394267	i c	-0.4164368
-1.241657	i d	-1.002765
-2.950168	i e
-2.224696	i f
-2.053648	i g	-0.3300837
-2.053648	i h	-0.6910995
-2.950168	i k
-1.718778	i l	-0.2649995
-2.224696	i m	-0.0315594
-0.6644207	i n	-0.5476103
-0.809698	i o	-0.9822376
-2.224696	i p	-0.1084306
-2.556112	i q	-0.3254808
-1.258048	i r	-0.6688936
-0.948745	i s	-8.791685e-05
-1.116718	i t	-0.9834535
-1.060237	i v	-0.6745523
-2.224696	i x	-0.1359185
-2.950168	i z
-2.275506	i 。	1.103577
-2.950168	i 也
-2.556112	i 啦	-0.05965793
-2.950168	i 就
-2.950168	i 通
-2.950168	i ，
-0.6007326	j a	-0.2671548
-0.3679768	j o	-0.4062587
-0.6007326	j u	-0.3841259
-2.480787	k %
-2.14937	k -
-0.3166618	k a	-1.580087
-2.14937	k b	-0.4587577
-2.200181	k c	-0.4880872
-2.874842	k d
-1.235967	k e	-0.3477027
-1.876208	k h	-0.7563925
-1.643453	k i	-0.4298933
-1.318942	k k	-1.263242
-2.480787	k l	-0.3107201
-2.14937	k o	-0.2925897
-2.480787	k r	-0.2996577
-1.217484	k s	-1.23659
-1.393575	k t	-1.191999
-1.079181	k u	-1.47965
-2.874842	k w
-1.556303	k y	-0.4434543
-1.367246	k 。	0.7160586
-2.874842	k 一
-2.874842	k 也
-2.874842	k 你
-2.874842	k 呢
-2.480787	k 啊
-2.874842	k 啦
-2.874842	k 嘛
-2.200181	k 就	-0.1707508
-2.874842	k 是
-2.200181	k 的
-1.694605	k ，	-0.06078078
-2.874842	k ？
-1.988082	l %	0.06948438
-2.490546	l -
-2.490546	l </s>
-2.884602	l ?
-0.5946178	l a	-0.4486946
-2.884602	l c
-1.653213	l d	-0.1372125
-1.116093	l e	-0.3840803
-2.884602	l f
-0.9842057	l i	-0.6459035
-1.704365	l k	-0.4363119
-0.8293038	l l	-0.3781987
-1.192482	l o	-0.2575949
-1.988082	l p	-0.3365057
-2.884602	l r
-1.566062	l s	-0.315745
-1.227244	l u	-0.8630736
-2.490546	l w	-0.2651514
-2.490546	l y
-1.285236	l 。	0.3232583
-2.884602	l 下
-2.884602	l 之
-2.884602	l 也
-2.884602	l 你
-2.884602	l 出
-2.884602	l 叫
-2.20994	l 呢	-0.1593174
-2.884602	l 哦
-2.490546	l 啊
-2.884602	l 啦
-2.884602	l 大
-2.884602	l 就
-2.884602	l 找
-2.15913	l 是	-0.1292325
-1.653213	l 的	-0.07804748
-2.884602	l 这
-2.884602	l 里
-1.431364	l ，	-0.2579389
-2.490546	l ？	0.8132933
-1.221849	m %	-0.2147167
-2.453238	m -
-0.6446123	m a	-0.5451617
-1.176091	m b	-0.9971207
-1.556718	m c	-0.6875033
-0.6320232	m e	-0.628579
-1.273001	m i	-0.5523478
-2.453238	m m
-1.09691	m o	-0.1922963
-1.221849	m p	-0.8584731
-1.454605	m r	-0.4702308
-2.453238	m s
-1.454605	m t	-0.7975591
-1.556718	m u	-0.3426128
-2.453238	m y
-2.059183	m 。	1.287209
-2.453238	m 之
-2.453238	m 啊
-2.453238	m 就
-2.453238	m ，
-2.453238	m ？
-2.098298	n %
-2.600762	n ,	0.1468815
-2.320156	n -	0.4674446
-1.996184	n .	0.4132166
-2.320156	n </s>
-2.994817	n ?
-1.036429	n a	-0.3814706
-1.814581	n c	-0.2569986
-0.9933946	n d	-0.2222087
-1.173602	n e	-0.2319556
-0.7308988	n g	-0.05898678
-2.994817	n h
-1.226309	n i	-0.4062793
-2.098298	n j	-0.498279
-1.375248	n k	-0.3883222
-2.600762	n l	-0.3236851
-2.600762	n m	-0.2466352
-2.600762	n n
-1.541579	n o	-0.6493317
-1.996184	n p	-0.356252
-1.638489	n r	-0.9133553
-1.571543	n s	-0.3680609
-0.9468185	n t	-0.3864915
-1.717671	n u	-1.01806
-1.161368	n 。	0.08917511
-2.994817	n 中
-2.994817	n 他
-2.994817	n 到
-2.600762	n 吗	1.161477
-2.994817	n 呢
-2.600762	n 哦
-2.994817	n 啊
-2.994817	n 大
-2.320156	n 就	0.1673819
-2.994817	n 我
-2.994817	n 旁
-2.994817	n 是
-2.994817	n 然
-1.996184	n 的	-0.1742528
-2.994817	n 这
-2.994817	n 里
-1.462398	n ，	0.01597609
-2.994817	n ？
-3.209113	o %
-2.483641	o ,	-0.1360283
-2.210479	o -	-0.190915
-2.028876	o .	0.3320642
-2.815058	o </s>
-3.209113	o ?
-1.199572	o a	-1.421229
-1.977724	o b	-0.8077317
-1.755875	o c	-1.112938
-1.852785	o d	-0.2126649
-2.210479	o f	-0.2326648
-2.534451	o g	-0.2010785
-2.815058	o h	-0.3443191
-0.6353009	o k	-1.2306
-2.11953	o l	-0.3116211
-1.818023	o m	-0.1461457
-0.8247561	o n	-0.440746
-1.469568	o o	-0.6247352
-1.727846	o p	-0.4404188
-1.007687	o r	-0.8620634
-1.352183	o s	-1.339661
-1.199572	o t	-1.013763
-0.9729247	o u	-0.8913021
-2.028876	o v	-0.7088548
-1.426816	o w	-0.4056822
-2.312593	o x	-0.04609211
-3.209113	o y
-2.028876	o 。	0.691235
-3.209113	o 了
-3.209113	o 唉
-3.209113	o 有
-2.534451	o 的
-3.209113	o 站
-3.209113	o 还
-3.209113	o 这
-3.209113	o 那
-2.11953	o ，	0.1268294
-2.534451	o ？	0.6296609
-2.505034	p -
-0.5557889	p a	-0.3305657
-0.9974378	p e	-0.7846639
-1.41545	p h	-0.6796644
-1.227887	p i	-0.5299597
-1.081759	p l	-1.028881
-0.885464	p o	-0.8225178
-1.113943	p p	-0.5189701
-1.608514	p r	-0.200547
-1.830372	p s	-0.2022697
-1.324797	p u	-0.2686052
-1.779561	p w	-0.431632
-1.324797	p y	-0.3769927
-2.505034	p 。
-2.505034	p 吧
-2.505034	p 是
-1.830372	p 的
-1.830372	p ，	-0.0009609759
-2.505034	p ？
-1.138364	q l	-0.3294527
-1.53242	q q
-0.1091445	q u	-0.8247846
-1.53242	q 里
-2.382082	r %
-2.160224	r '	-0.5039561
-2.662688	r ,
-3.056744	r -
-2.382082	r .	1.082538
-2.160224	r 2	0.03476036
-3.056744	r ?
-0.9734165	r a	-0.7207465
-1.549148	r b	-1.164458
-1.317199	r c	-1.296152
-1.199813	r d	-0.09809333
-1.166813	r e	-0.3936785
-1.302475	r f	-1.06911
-1.478567	r g	-1.274637
-2.05811	r h	-0.7563925
-1.235528	r i	-0.2169471
-1.188532	r k	-0.7070338
-1.825354	r l	-0.5957875
-1.825354	r m	-0.2584758
-1.96716	r n	-0.5537334
-0.8987829	r o	-1.043752
-1.700415	r p	-0.7327831
-1.876506	r r	-0.2493961
-1.317199	r s	-0.1958546
-1.211395	r t	-0.2773731
-1.876506	r u	-0.4404142
-2.662688	r v	-0.2566463
-1.876506	r y	-0.1585407
-1.274446	r 。	0.1269636
-3.056744	r 了
-2.662688	r 你
-2.662688	r 嘛
-2.382082	r 地	-0.3872043
-3.056744	r 就
-3.056744	r 旅
-2.662688	r 的
-2.662688	r 站
-1.700415	r ，	0.09180425
-1.960411	s %	0.05220762
-2.462875	s -	0.3129443
-2.856931	s .
-2.856931	s </s>
-2.856931	s ?
-0.5503998	s a	-0.4447549
-1.676694	s c	-0.5560542
-0.988719	s e	-0.6679735
-1.858297	s f	-0.731213
-1.132626	s h	-0.262446
-1.132626	s i	-0.6374351
-2.462875	s j	-0.2328864
-1.960411	s k	-0.7290826
-2.856931	s l
-1.237361	s o	-0.3859924
-1.403692	s p	-0.4222135
-1.960411	s r	-0.2989557
-1.858297	s s
-0.8016323	s t	-1.172173
-1.767347	s u	-0.2694291
-1.433656	s 。	0.4693862
-2.856931	s 吧
-2.856931	s 呢
-2.462875	s 啊	-0.1157187
-2.856931	s 它
-2.856931	s 旅
-2.462875	s 的
-2.856931	s 这
-2.856931	s 都
-2.856931	s 酒
-1.858297	s ，	0.01140423
-2.117024	t %	-0.1608337
-2.338882	t '	-0.30454
-1.782154	t -	0.1888512
-2.619488	t .	0.9280382
-0.8975474	t a	-0.8391246
-3.013544	t c
-3.013544	t d
-0.8225827	t e	-1.109501
-1.289238	t h	-0.0155167
-1.204918	t i	-0.9812198
-2.338882	t j	-0.4165188
-2.288071	t l	-0.4901656
-0.7968773	t o	-1.163812
-2.288071	t p	-0.2946581
-1.156613	t r	-1.070518
-2.117024	t s	-0.2075287
-1.321423	t t	-0.9041274
-1.590268	t u	-0.6887556
-1.560305	t v	-0.178229
-2.288071	t w	-0.4826496
-1.217883	t y	-0.3897365
-2.619488	t ~	-0.2438218
-3.013544	t ’
-1.435367	t 。	0.3232583
-3.013544	t 也
-3.013544	t 你
-2.338882	t 哦	-0.05251405
-2.619488	t 啊
-2.338882	t 啦	-0.2432904
-3.013544	t 嘛
-2.288071	t 就	-0.1535988
-3.013544	t 差
-3.013544	t 我
-2.619488	t 是
-2.288071	t 的
-3.013544	t 站
-3.013544	t 走
-2.288071	t 这	-0.1544852
-3.013544	t 里
-1.356185	t ，	-0.2022395
-3.013544	t ？
-2.78903	u -
-2.394975	u .	0.9280382
-2.063558	u ?	0.870286
-1.470491	u a	-0.9802945
-1.335792	u b	-0.2882707
-1.892511	u c	-0.4226692
-1.432702	u d	-0.955919
-1.432702	u e	-0.4538247
-1.557641	u f	-0.4709694
-1.210853	u g	-0.9091926
-2.063558	u h	-0.1396747
-1.150156	u i	-1.059982
-1.557641	u l	-0.2883542
-1.281434	u m	-0.8193972
-1.113943	u n	-0.8160021
-2.78903	u p
-0.6426516	u r	-0.6720773
-1.470491	u s	-0.9667591
-0.7560085	u t	-0.3487841
-2.063558	u u	-0.5042273
-2.78903	u v
-2.114369	u x	-0.177129
-2.114369	u 。	1.103577
-2.78903	u 搭
-2.78903	u Ｎ
-1.7455	v %	-0.4603478
-1.69469	v a	-0.2802482
-0.3648635	v e	-0.849468
-0.9968868	v h	-1.059394
-0.6806168	v i	-0.5828909
-0.9968868	v o	-1.168404
-2.026106	v 。	1.287209
-2.420162	v 之
-2.026106	v 也	-0.3086171
-2.420162	v 吗
-2.026106	v 啦	-0.1530796
-2.420162	v 在
-2.420162	v 是
-2.420162	v 的
-2.420162	v 还
-2.026106	v 酒	0.476033
-2.420162	v ，
-0.7144822	w a	-0.5412514
-2.033022	w b
-1.307549	w c	-0.4709352
-0.8016323	w e	-0.3615287
-2.033022	w h
-2.033022	w i
-1.638966	w k
-2.033022	w m
-0.5006024	w n	-0.338834
-1.034388	w o	-0.04512956
-1.638966	w t	-0.2827374
-2.033022	w 啦
-1.61957	x %
-1.61957	x -
-1.61957	x e
-1.225514	x i
-0.9449081	x p	-0.1929371
-1.225514	x r	-0.2996577
-0.4393327	x 。	0.691235
-1.61957	x 你
-0.9449081	x 啊	-0.09524143
-1.932077	y %	0.07029212
-2.103125	y ,	0.3619573
-2.103125	y -	0.5280201
-1.64836	y .	0.3320642
-1.932077	y a
-2.434541	y c	-0.2951147
-0.780598	y e	-0.8429809
-1.472269	y g	-0.7200415
-1.296178	y h	-0.9631643
-2.828597	y i
-1.597208	y m	-0.5821085
-1.405322	y o	-0.576912
-2.153935	y p	-0.4003741
-2.153935	y s	-0.39828
-2.828597	y w
-2.434541	y ~
-0.6169515	y 。	0.370971
-2.153935	y 了	-0.007777378
-2.828597	y 其
-2.828597	y 再
-2.828597	y 吗
-2.828597	y 哦
-2.828597	y 啊
-2.828597	y 啦
-2.828597	y 大
-2.434541	y 好
-2.828597	y 对
-2.434541	y 就	0.01288167
-2.828597	y 有
-1.64836	y 的	-0.1650504
-2.828597	y 那
-0.582967	y ，	-0.2033283
-2.434541	y ？	0.8132933
-0.5567279	z -	-0.5401603
-0.5567279	z a	-0.2004339
-1.23139	z e
-0.837334	z o	-0.3432824
-0.9361785	~ %	-0.2207476
-2.690447	~ -
-2.690447	~ .
-0.6351485	~ </s>
-2.690447	~ a
-2.690447	~ q
-2.296391	~ 。	1.287209
-2.690447	~ 一
-2.690447	~ 下
-1.964974	~ 不	-0.1234215
-2.690447	~ 专
-2.296391	~ 个
-2.015785	~ 中	-0.04676989
-2.296391	~ 为
-2.690447	~ 举
-2.690447	~ 也
-2.690447	~ 享
-2.690447	~ 亮
-2.015785	~ 什	1.680838
-2.690447	~ 他
-2.690447	~ 以
-2.690447	~ 们
-2.690447	~ 份
-2.015785	~ 你
-2.690447	~ 再
-2.690447	~ 写
-2.690447	~ 几
-2.690447	~ 出
-2.690447	~ 十
-2.690447	~ 单
-2.690447	~ 卖
-2.690447	~ 参
-2.690447	~ 反
-2.690447	~ 可
-2.690447	~ 史
-2.690447	~ 同
-2.690447	~ 吗
-2.690447	~ 啊
-2.690447	~ 喜
-2.296391	~ 嗯	0.2526859
-2.690447	~ 因
-2.690447	~ 国
-2.690447	~ 在
-2.296391	~ 大	-0.1203856
-2.690447	~ 如
-2.296391	~ 它
-2.690447	~ 实
-2.690447	~ 家
-2.690447	~ 对
-1.459057	~ 就	-0.08911076
-2.690447	~ 应
-2.690447	~ 度
-2.690447	~ 开
-2.296391	~ 怎
-2.690447	~ 我
-2.690447	~ 或
-2.690447	~ 拉
-2.690447	~ 收
-2.690447	~ 放
-2.296391	~ 新	0.3474611
-2.690447	~ 日
-2.296391	~ 时	-0.3563975
-1.182851	~ 是	-0.2366944
-2.690447	~ 晚
-2.690447	~ 月
-1.964974	~ 有
-2.690447	~ 末
-2.690447	~ 来
-2.690447	~ 样
-2.690447	~ 根
-2.296391	~ 比	0.1093295
-2.690447	~ 沙
-2.015785	~ 没	0.0717591
-2.690447	~ 温
-2.690447	~ 然
-2.690447	~ 现
-2.690447	~ 百
-2.690447	~ 的
-2.296391	~ 看
-2.690447	~ 票
-2.690447	~ 离
-2.690447	~ 种
-2.690447	~ 线
-2.690447	~ 组
-2.015785	~ 给
-2.690447	~ 衣
-2.690447	~ 表
-2.690447	~ 要
-2.690447	~ 该
-2.690447	~ 说
-2.690447	~ 赌
-2.690447	~ 跟
-2.690447	~ 车
-2.690447	~ 过
-2.296391	~ 还	-0.06754425
-1.51021	~ 这	0.2351774
-2.015785	~ 通	-0.02631338
-1.691813	~ 那	0.04670075
-2.690447	~ 都
-2.690447	~ 间
-2.690447	~ 食
-2.690447	~ 高
-2.015785	~ ？	0.6296609
-0.2771471	’ s
-0.2771471	… %
-0.2771471	　 ［
-1.259245	、 </s>
-1.984717	、 一
-1.590662	、 七
-1.310055	、 三	-0.1151616
-1.984717	、 下
-1.984717	、 东
-1.310055	、 两	-0.1923638
-1.984717	、 买
-1.984717	、 二
-1.984717	、 五
-1.984717	、 井
-1.984717	、 体
-1.984717	、 免
-1.310055	、 八	-0.1833052
-1.590662	、 六
-1.984717	、 冰
-1.590662	、 十	-0.3019928
-1.984717	、 午
-1.984717	、 吃
-1.984717	、 喝
-1.984717	、 夜
-1.984717	、 客
-1.984717	、 快
-1.984717	、 或
-1.984717	、 晚
-1.984717	、 有
-1.984717	、 水
-1.984717	、 紫
-1.984717	、 红
-1.984717	、 肉
-1.984717	、 菜
-1.984717	、 衣
-1.984717	、 跟
-1.590662	、 还
-1.984717	、 金
-1.984717	、 非
-1.984717	、 鞋
-1.984717	、 鸡
-2.000489	。 %	-0.1636189
-0.009937243	。 </s>
-4.587266	。 b
-4.587266	。 o
-3.912605	。 。	1.103577
-4.587266	。 一
-4.587266	。 三
-4.193211	。 不
-4.587266	。 东
-4.587266	。 两
-4.587266	。 之
-4.587266	。 二
-3.861794	。 但	0.8656814
-3.268727	。 你	0.001871929
-4.587266	。 兰
-3.912605	。 其	0.02543274
-4.193211	。 刚	-0.03050423
-4.587266	。 南
-4.193211	。 厦	0.3976064
-4.587266	。 又
-3.690747	。 可	0.487465
-3.861794	。 呵	-0.2745314
-4.193211	。 哎	-0.2522151
-4.587266	。 嗯
-3.861794	。 因	0.9256622
-4.587266	。 国
-4.587266	。 外
-4.587266	。 夜
-4.587266	。 天
-3.912605	。 好
-3.861794	。 如	0.2354588
-3.196176	。 它	-0.1586506
-3.268727	。 对	-0.01094988
-3.31012	。 就	-0.04817373
-3.355877	。 我	0.1744479
-4.587266	。 或
-3.079671	。 所	-0.3895227
-4.193211	。 新	0.3474611
-4.587266	。 方
-4.587266	。 既
-4.587266	。 早
-3.912605	。 是
-3.690747	。 有	-0.09269156
-4.193211	。 比
-4.587266	。 湄
-4.587266	。 滨
-2.862962	。 然	-0.3945864
-4.193211	。 现	0.7715461
-4.587266	。 白
-4.587266	。 看
-4.587266	。 等
-4.193211	。 而	0.2983772
-4.193211	。 要	-0.3517549
-4.587266	。 还
-2.878756	。 这	0.02616191
-2.730336	。 那	-0.1787127
-4.587266	。 金
-4.587266	。 铁
-4.587266	。 银
-4.587266	。 随
-4.587266	。 鱼
-4.587266	。 ，
-3.588633	。 ｛	-0.11341
-2.605933	一 %	-0.1679123
-2.207993	一 -	0.09827119
-2.963628	一 </s>
-3.568206	一 ~
-2.538986	一 。	0.4993495
-3.2876	一 一
-2.509023	一 万	-0.2044544
-2.872678	一 三	-0.2663352
-3.962261	一 上
-0.9870139	一 下	-0.4330551
-3.962261	一 不
-2.406361	一 两	-0.1405554
-0.5392967	一 个	-0.1150243
-3.962261	一 串
-2.253751	一 九	-0.7499726
-3.962261	一 了
-3.065742	一 二	-0.3474954
-0.8755547	一 些	-0.01353592
-2.963628	一 人	-0.05154549
-3.962261	一 介
-3.962261	一 从
-3.568206	一 代	-0.3145595
-2.963628	一 件	-0.1069461
-3.962261	一 任
-2.287174	一 份	-0.0847486
-3.2876	一 会	-0.5354076
-3.568206	一 位
-3.568206	一 体
-3.568206	一 倍
-3.962261	一 停
-3.568206	一 克
-2.872678	一 八	-0.2552108
-2.384084	一 公	-0.7077831
-3.962261	一 共
-2.685114	一 出	-0.1458493
-3.568206	一 分	-0.2140836
-3.962261	一 切
-3.962261	一 到
-3.962261	一 副
-3.568206	一 包
-3.568206	一 区
-2.072331	一 十	-0.7704136
-2.454666	一 千	-0.1670619
-2.509023	一 半	-0.3815904
-3.962261	一 印
-3.962261	一 厅
-3.236789	一 去	-0.1304184
-3.962261	一 口
-3.2876	一 句
-2.730872	一 只	-0.1198362
-3.962261	一 台
-2.643722	一 号	-0.1254013
-3.962261	一 呢
-2.872678	一 周	-0.139869
-3.568206	一 啊	-0.1157187
-3.568206	一 回	-0.348107
-2.963628	一 团	-0.07629137
-2.480994	一 圈	0.0162826
-3.962261	一 在
-2.538986	一 场	-0.2572259
-3.962261	一 坐
-1.944752	一 块	-0.01385939
-3.568206	一 堆
-3.962261	一 外
-3.2876	一 大	-0.2031901
-1.721327	一 天	-0.1176702
-2.538986	一 头	-0.2814704
-2.872678	一 套	-0.1926946
-3.962261	一 它
-1.726073	一 定	-0.2943371
-2.509023	一 家	-0.2851837
-3.568206	一 对	-0.3579601
-2.872678	一 小	-0.3820323
-3.568206	一 尝	-0.2744915
-3.568206	一 就
-3.962261	一 层
-3.568206	一 岁
-3.962261	一 工
-2.1666	一 带	-0.1166574
-3.962261	一 平
-2.454666	一 年	-0.2668053
-3.962261	一 度
-2.429842	一 座	-0.07998857
-3.962261	一 开
-2.1666	一 张	0.01823336
-3.2876	一 律	-0.09689108
-3.962261	一 想
-3.962261	一 成
-3.962261	一 我
-3.568206	一 批
-3.962261	一 摊
-2.128812	一 整	-1.067823
-3.236789	一 新	-0.4693841
-3.568206	一 方
-3.962261	一 日
-2.872678	一 早
-3.962261	一 时
-3.2876	一 是	-0.1994108
-2.605933	一 晚	0.5418052
-3.962261	一 景
-2.685114	一 月	-0.1260257
-3.962261	一 有
-3.962261	一 朵
-1.846265	一 条	0.01937896
-2.406361	一 杯	-0.08720008
-2.605933	一 栋	0.07075828
-3.2876	一 株
-1.564541	一 样	-0.4464464
-3.236789	一 根	-0.2844898
-3.962261	一 桶
-3.065742	一 楼	-0.12171
-2.237957	一 次	-0.01540558
-3.962261	一 步
-2.571171	一 段	-0.007947788
-2.872678	一 比	-0.7922889
-3.065742	一 毛	-0.09347858
-3.568206	一 汤
-3.962261	一 没
-1.222716	一 点	-0.05200493
-2.643722	一 片	-0.07993706
-3.962261	一 玩
-3.568206	一 班
-3.962261	一 生
-1.545235	一 百	-0.139791
-3.065742	一 的
-2.730872	一 盘
-3.962261	一 目
-2.323387	一 直	-0.1519476
-3.236789	一 看	-0.3150167
-3.568206	一 知	-0.3534242
-2.509023	一 碗	0.005270094
-2.429842	一 票	-1.224173
-1.804301	一 种	-0.1581248
-3.962261	一 站
-3.2876	一 端
-3.236789	一 米
-2.963628	一 类	-0.2326764
-3.568206	一 粒
-3.962261	一 系
-2.571171	一 组	-0.3109685
-3.962261	一 罐
-3.962261	一 股
-2.022357	一 般	0.02428257
-2.782024	一 艘	0.01093495
-3.962261	一 讲
-3.568206	一 试	-0.3105451
-3.065742	一 语	-0.7212304
-3.962261	一 说
-3.236789	一 走	-0.1070809
-1.833856	一 起	0.1476605
-2.872678	一 趟	-0.02988966
-3.065742	一 路	-0.08590557
-3.962261	一 转
-2.605933	一 辆	-0.2078624
-3.962261	一 辈
-1.574525	一 边	-0.1534043
-3.962261	一 这
-3.2876	一 进	0.09150945
-3.962261	一 连
-3.236789	一 逛
-2.362895	一 道	-0.07789333
-3.962261	一 那
-2.128812	一 部	-1.206363
-3.962261	一 酒
-2.538986	一 锅	-0.3749256
-3.962261	一 门
-2.153636	一 间	-0.1393019
-3.568206	一 阵
-3.962261	一 零
-2.454666	一 面	-0.06056055
-2.782024	一 顿	-0.02063665
-2.963628	一 颗	-0.07955427
-2.872678	一 餐	-0.1076053
-3.962261	一 ％
-2.270141	一 ，	0.01867297
-3.962261	一 －
-3.962261	一 ？
-3.962261	一 ］
-0.6024854	丁 车
-0.1875637	丁 香	-0.4100344
-1.905681	七 </s>
-2.186288	七 、	-0.3364619
-2.186288	七 。	1.287209
-2.186288	七 一	-0.3567413
-2.580343	七 七
-1.49076	七 个	-0.4016557
-1.400106	七 二	-0.9441715
-2.580343	七 人
-1.261803	七 八	-0.3355183
-1.683823	七 分	-0.5971321
-2.580343	七 到
-0.5628334	七 十	-0.3753061
-1.683823	七 号	-0.1180545
-2.580343	七 四
-1.127105	七 块	-0.3239051
-1.683823	七 天	-0.106224
-1.49076	七 层	-0.08938265
-1.854871	七 年	-0.3267107
-1.157068	七 月	-0.3187588
-1.905681	七 楼	-0.4212242
-1.002166	七 点	-0.08568104
-0.8882227	七 百	-0.4218639
-2.580343	七 的
-2.580343	七 ，
-2.580343	七 ？
-2.109656	万 %
-2.109656	万 -
-1.213136	万 。	0.9041605
-1.7156	万 一
-2.109656	万 不
-1.7156	万 五	-0.3534268
-1.213136	万 人	-0.3810338
-1.020073	万 代	-0.5578641
-1.7156	万 块
-1.434994	万 多
-2.109656	万 就
-1.434994	万 左	0.04243028
-2.109656	万 要
-2.109656	万 象
-2.109656	万 辆
-2.109656	万 还
-1.7156	万 里	-0.3229554
-2.109656	万 金
-1.434994	万 钱
-0.60206	万 黛	0
-1.111022	万 ，	-0.07089444
-1.7156	万 ？	0.8132933
-2.608186	三 %
-3.002242	三 -
-2.105722	三 d	-0.08539656
-2.32758	三 。	1.103577
-3.002242	三 万
-2.276769	三 世	-0.5046402
-1.017524	三 个	-0.4248833
-3.002242	三 二
-2.003608	三 人	-0.2722925
-3.002242	三 代
-3.002242	三 元
-2.276769	三 八	-0.1246303
-1.469822	三 公	-1.192415
-3.002242	三 分
-2.105722	三 到	-0.2497315
-3.002242	三 包
-0.7338684	三 十	-0.2917324
-1.770852	三 千	-0.3933141
-3.002242	三 只
-1.611151	三 号	-0.2504654
-3.002242	三 合
-3.002242	三 吧
-1.611151	三 四	-0.1026762
-3.002242	三 园
-3.002242	三 围
-2.105722	三 场	-0.1056932
-1.081642	三 块	-0.2977762
-2.608186	三 夜
-1.912658	三 大	-0.1664434
-1.009091	三 天	-0.2493756
-2.608186	三 头
-2.276769	三 家
-1.725095	三 层	-0.09014288
-2.276769	三 岁	0.02706905
-3.002242	三 巴
-1.822005	三 年	-0.1404634
-2.32758	三 度	-0.1994936
-1.611151	三 座	-0.08561287
-2.276769	三 房
-2.32758	三 星	-0.1845162
-3.002242	三 月
-2.276769	三 条	-0.3065752
-3.002242	三 杯
-1.469822	三 栋	-0.03563747
-1.725095	三 样	-0.1674348
-1.549003	三 楼	-0.1011946
-3.002242	三 次
-1.578966	三 点	-0.1983886
-1.402875	三 百	-0.4013963
-2.608186	三 种
-3.002242	三 米
-1.424065	三 维	-0.1491459
-3.002242	三 罐
-2.276769	三 菜	-0.268722
-3.002242	三 这
-3.002242	三 间
-2.608186	三 餐	-0.3508567
-3.002242	三 ％
-2.003608	三 ，
-2.608186	三 ？	0.8132933
-1.413894	上 %	-0.8789664
-3.182403	上 ,
-2.09282	上 -	0.08226436
-2.285883	上 </s>
-3.182403	上 、
-1.490283	上 。	0.2305042
-1.386742	上 一	-0.2560011
-1.951014	上 七	-0.9544825
-3.182403	上 三
-2.507741	上 上	-0.537012
-1.951014	上 下	-0.2237035
-2.456931	上 不	-0.04277556
-2.788347	上 两
-3.182403	上 个
-3.182403	上 主
-3.182403	上 之
-1.863863	上 也	-0.08429727
-2.09282	上 了	-0.2311798
-2.507741	上 五	-0.09878343
-3.182403	上 人
-3.182403	上 什
-2.788347	上 他	-0.04338735
-2.183769	上 会
-1.905256	上 你	-0.08774784
-3.182403	上 使
-3.182403	上 像
-2.09282	上 八	-0.7544239
-2.09282	上 六	-0.7538784
-3.182403	上 再
-2.507741	上 几	-0.5142295
-2.788347	上 出	-0.315322
-1.905256	上 到	-0.05045145
-3.182403	上 办
-1.759128	上 十	-0.6392663
-3.182403	上 千
-2.456931	上 半	-0.287631
-3.182403	上 卖
-3.182403	上 印
-1.271788	上 去	-0.1487937
-3.182403	上 只
-3.182403	上 叫
-2.09282	上 可	-0.04953676
-2.285883	上 司
-2.788347	上 吃
-3.182403	上 后
-2.507741	上 吗	0.977845
-2.788347	上 吧	-0.1844812
-3.182403	上 听
-1.826075	上 呢	-0.236394
-2.788347	上 呵
-3.182403	上 哦
-1.863863	上 啊	-0.7988429
-3.182403	上 啦
-2.183769	上 嘛	-0.2467948
-2.788347	上 四	-0.2522151
-2.507741	上 回
-2.788347	上 在	-0.2681731
-2.788347	上 坐
-2.09282	上 大	-0.3510656
-2.456931	上 好
-2.456931	上 如	0.04292291
-2.285883	上 它	-0.08745933
-1.701136	上 就	0.198049
-2.788347	上 岂	0.1556974
-3.182403	上 市
-3.182403	上 应
-2.788347	上 开
-2.788347	上 很	-0.1974584
-2.788347	上 得
-3.182403	上 忙
-2.788347	上 想
-1.863863	上 我	-0.2719957
-2.788347	上 才
-2.788347	上 打
-3.182403	上 捡
-3.182403	上 散
-3.182403	上 新
-2.456931	上 方
-1.791313	上 是	-0.02182784
-1.826075	上 最	-0.3311418
-1.729165	上 有	-0.0181638
-1.791313	上 来	-0.09188839
-3.182403	上 栽
-2.788347	上 次
-2.788347	上 比	0.1093295
-2.788347	上 没	0.2553916
-3.182403	上 泳
-2.788347	上 活	-0.1602226
-2.788347	上 海
-3.182403	上 然
-3.182403	上 玩
-3.182403	上 现
-2.002166	上 班	-0.02924177
-2.788347	上 甜	-0.2235699
-3.182403	上 由
-3.182403	上 白
-1.18098	上 的	-0.192339
-2.09282	上 看
-3.182403	上 睡
-3.182403	上 碰
-3.182403	上 穿
-3.182403	上 第
-1.626502	上 网	-0.2292172
-3.182403	上 罢
-3.182403	上 菜
-2.507741	上 蒜	0.5187969
-3.182403	上 螃
-2.285883	上 衣	-0.1025603
-2.788347	上 要
-2.285883	上 课
-3.182403	上 走
-2.507741	上 跟
-3.182403	上 跳
-2.788347	上 车
-3.182403	上 辣
-3.182403	上 运
-2.09282	上 还	-0.09091452
-1.701136	上 这	-0.356735
-2.788347	上 通	-0.1808136
-2.09282	上 那	-0.3763627
-2.09282	上 都	-0.0167774
-3.182403	上 酒
-3.182403	上 里
-3.182403	上 除
-0.8966559	上 面	-0.02220422
-3.182403	上 预
-2.507741	上 飞	-0.4169622
-3.182403	上 馒
-2.788347	上 香	-0.3285333
-3.182403	上 马
-2.507741	上 ％	-0.05307372
-1.233158	上 ，	-0.2078715
-2.507741	上 ？	0.6296609
-1.1959	下 %	-0.7821681
-3.172017	下 ,
-2.497355	下 -	0.1293119
-3.172017	下 .
-2.497355	下 </s>
-3.172017	下 c
-3.172017	下 f
-0.9263867	下 。	-0.3230054
-1.780926	下 一	-0.05617625
-3.172017	下 三
-2.497355	下 下	-0.1982003
-3.172017	下 不
-2.082433	下 个	-0.3549594
-3.172017	下 乌
-2.777961	下 也
-1.89487	下 了	-0.1386906
-3.172017	下 亚
-3.172017	下 交
-3.172017	下 他
-3.172017	下 价
-2.777961	下 会
-1.940627	下 你	-0.2468836
-3.172017	下 先
-3.172017	下 关
-2.777961	下 其	-0.3156242
-3.172017	下 再
-3.172017	下 几
-3.172017	下 到
-1.38972	下 午	-0.1331118
-3.172017	下 卓
-3.172017	下 历
-3.172017	下 厦
-1.639597	下 去	-0.1053495
-3.172017	下 口
-2.777961	下 可
-3.172017	下 名
-1.940627	下 吗	0.5197459
-1.99178	下 吧	-0.4032214
-3.172017	下 呢
-1.89487	下 呵	-0.1893137
-3.172017	下 咯
-1.552447	下 哦	-0.3253936
-3.172017	下 哪
-1.815688	下 啊	-0.5471231
-2.497355	下 啦	0.09484233
-2.497355	下 嘛	-0.3331147
-3.172017	下 回
-3.172017	下 圣
-2.777961	下 在
-3.172017	下 天
-2.777961	下 好
-2.497355	下 子	-0.2014702
-1.748742	下 它	-0.5535086
-3.172017	下 室
-1.664421	下 就	-0.3821775
-3.172017	下 层
-3.172017	下 属
-2.497355	下 山
-3.172017	下 岛
-3.172017	下 左
-3.172017	下 很
-3.172017	下 心
-2.777961	下 怎	0.4612755
-3.172017	下 情
-3.172017	下 想
-1.552447	下 我	-0.0436601
-3.172017	下 才
-3.172017	下 护
-1.853477	下 新	-0.0346331
-3.172017	下 旅
-3.172017	下 时
-3.172017	下 明
-3.172017	下 是
-3.172017	下 最
-1.251417	下 来	-0.1450942
-1.69075	下 榻	0.02893847
-2.173383	下 次	-0.1277339
-3.172017	下 海
-3.172017	下 游
-2.777961	下 滑
-3.172017	下 现
-2.173383	下 班	-0.1549235
-3.172017	下 电
-1.89487	下 的	-0.2274083
-2.497355	下 给	0.3309174
-2.777961	下 行
-2.446544	下 角
-3.172017	下 费
-3.172017	下 资
-2.777961	下 路
-1.59384	下 车	-0.1290834
-2.777961	下 还	-0.06754425
-1.350802	下 这	-0.1522567
-3.172017	下 追
-3.172017	下 选
-2.777961	下 道
-1.178866	下 那	-0.7757412
-3.172017	下 都
-3.172017	下 酒
-1.664421	下 雨	-0.1992428
-1.479896	下 面	0.003100529
-1.940627	下 飞	-0.8750613
-3.172017	下 驶
-2.446544	下 ％	-0.2605376
-1.025638	下 ，	-0.05490899
-3.172017	下 －
-2.777961	下 ？	0.8132933
-2.822354	不 %	-0.151393
-2.094588	不 -	0.1875437
-3.547826	不 0
-3.547826	不 </s>
-3.15377	不 ~
-1.598581	不 一	-1.660769
-3.547826	不 上
-2.822354	不 不	-0.3316312
-2.458242	不 久	-0.08497244
-3.15377	不 习	-0.04299802
-3.547826	不 买
-2.822354	不 了	-0.4990844
-3.547826	不 亦
-1.160089	不 会	-0.3014834
-2.549192	不 住	-0.08007963
-2.651306	不 停
-2.229286	不 像	-0.1051493
-2.458242	不 允	0.2450306
-2.822354	不 准	-0.1207597
-2.367589	不 出	-0.2827875
-3.15377	不 分	-0.355526
-3.547826	不 切
-3.15377	不 划	-0.2688681
-1.752165	不 到	-0.05248728
-3.547826	不 动
-2.873164	不 包
-3.547826	不 十
-2.873164	不 单	-0.4363908
-3.547826	不 卖
-2.651306	不 去	-0.1094222
-3.547826	不 受
-3.547826	不 变
-2.822354	不 只	-0.4150716
-2.549192	不 叫	-0.3363673
-1.726611	不 可	-0.5728227
-2.270679	不 吃	-0.3928404
-3.547826	不 合
-1.351601	不 同	-0.2707169
-3.547826	不 听
-3.547826	不 喜
-3.547826	不 喷
-3.15377	不 回	-0.3334449
-3.547826	不 团
-2.822354	不 在
-1.279453	不 多	-0.2474972
-2.458242	不 够	-0.06192451
-1.890468	不 大	-0.3704066
-1.872739	不 太	-0.230075
-3.547826	不 失
-3.15377	不 奇	-0.1321982
-1.457765	不 好	-0.4368165
-3.547826	不 如
-3.547826	不 嫌
-3.15377	不 安	-0.2701324
-2.873164	不 完
-3.547826	不 容
-1.855705	不 对	-0.2060764
-2.873164	不 小
-2.873164	不 少	-0.1792253
-3.547826	不 尝
-3.547826	不 就
-3.547826	不 干
-3.547826	不 庄
-2.873164	不 应	1.312547
-3.547826	不 建
-3.547826	不 开
-2.873164	不 很
-3.547826	不 得
-2.822354	不 必	-0.1035396
-2.822354	不 怎	0.294795
-3.547826	不 怕
-3.547826	不 惯
-2.316436	不 想	-0.1290884
-3.547826	不 感
-3.547826	不 愿
-2.651306	不 懂
-2.822354	不 成	-0.5127468
-3.547826	不 扎
-3.547826	不 打
-3.547826	不 扔
-3.15377	不 担	0.3107383
-2.822354	不 拆	-0.07493827
-2.873164	不 换	-0.5274276
-3.547826	不 接
-3.15377	不 摆	-0.1976309
-2.458242	不 收	-0.3020388
-2.549192	不 方	-0.7839017
-3.547826	不 明
-0.6852181	不 是	-0.3167176
-2.822354	不 晓	0.6152249
-3.547826	不 来
-3.547826	不 止
-3.547826	不 比
-3.547826	不 注
-3.15377	不 流	-0.2333297
-3.547826	不 深
-2.458242	不 清	-0.2281603
-3.547826	不 漂
-3.547826	不 热
-1.872739	不 然	-0.1580294
-2.822354	不 熟	-0.2879915
-1.233252	不 用	-0.2694719
-2.873164	不 看
-2.873164	不 着	-0.1997178
-1.94846	不 知	-0.2705407
-3.547826	不 确
-3.547826	不 礼
-3.547826	不 空
-3.547826	不 签
-2.270679	不 算	-0.04460986
-2.458242	不 管	-0.1156496
-3.547826	不 累
-3.547826	不 给
-3.547826	不 肯
-1.384188	不 能	-0.1605173
-2.873164	不 舍	-0.4681934
-3.15377	不 虚
-2.367589	不 行	-0.01286317
-1.457765	不 要	-0.0625933
-3.547826	不 见
-2.873164	不 让	-0.5263858
-3.547826	不 讲
-3.547826	不 说
-3.547826	不 课
-1.598581	不 贵	-0.4106126
-1.598581	不 起	-0.9618517
-3.15377	不 辣
-2.316436	不 过	-0.1139029
-2.270679	不 远	-0.1262937
-3.15377	不 适	0.003459364
-3.547826	不 选
-3.547826	不 透
-3.15377	不 通	-0.3242998
-3.547826	不 遗
-2.822354	不 那	-0.4992239
-1.241295	不 错	-0.1471264
-3.15377	不 长
-2.651306	不 难	-0.3563148
-1.765529	不 需	-0.003302574
-2.04023	不 高	-0.204451
-2.822354	不 鼓	-0.316473
-2.270679	不 ，	0.05670619
-3.547826	不 －
-3.547826	不 ？
-2.873164	不 ］	-0.5258348
-2.822354	不 ～	0.1045918
-0.578177	与 其
-0.578177	与 昆
-0.9826966	专 业
-1.657358	专 卖
-1.657358	专 旅
-1.657358	专 是
-1.657358	专 用
-0.1497623	专 门	-0.1494707
-0.916454	且 %	-0.8325955
-2.272782	且 -
-2.272782	且 </s>
-2.272782	且 也
-1.598121	且 他	-0.2270198
-2.272782	且 价
-2.272782	且 你
-2.272782	且 公
-2.272782	且 另
-1.878727	且 可	0.3885568
-2.272782	且 同
-1.598121	且 啊	-0.2993511
-2.272782	且 在
-2.272782	且 坐
-1.878727	且 大
-2.272782	且 天
-1.274148	且 它	-0.1242841
-2.272782	且 小
-2.272782	且 就
-2.272782	且 很
-1.376262	且 我	0.04988897
-2.272782	且 早
-2.272782	且 时
-0.9542425	且 是	-0.03196463
-2.272782	且 比
-2.272782	且 沿
-2.272782	且 特
-2.272782	且 看
-2.272782	且 还
-0.9956352	且 这	-0.6297362
-1.598121	且 那	-0.3293152
-2.272782	且 门
-2.272782	且 难
-0.7168816	且 ，	0.1566129
-2.240935	世 %
-2.240935	世 -
-2.240935	世 ~
-2.240935	世 嘛
-0.04997398	世 界	0.04169494
-2.240935	世 的
-1.344415	世 纪	-0.343152
-1.038822	业 %	-0.1739011
-1.129772	业 。	0.7723874
-1.453744	业 中	-0.4087522
-1.73435	业 之
-2.128405	业 了
-2.128405	业 人
-1.73435	业 到
-1.453744	业 区
-2.128405	业 只
-2.128405	业 呢
-1.73435	业 啊
-1.73435	业 啦
-2.128405	业 嘛
-2.128405	业 地
-2.128405	业 大
-2.128405	业 广
-2.128405	业 成
-1.453744	业 时	-0.3851798
-2.128405	业 是
-1.73435	业 生
-0.8512583	业 的	-0.1619356
-0.9481683	业 街	-0.3815817
-1.402933	业 补	-0.3816267
-1.73435	业 装	-0.297859
-2.128405	业 训
-1.402933	业 ，
-2.221548	东 %	-0.2767154
-2.615603	东 -
-2.615603	东 ~
-1.384214	东 人	-0.1284909
-2.221548	东 到	-0.3570391
-1.297064	东 北	0.05416855
-1.719084	东 南	-0.3512682
-1.940942	东 啊	-0.2993511
-2.615603	东 啦
-2.615603	东 大
-1.297064	东 海	-1.068478
-1.940942	东 的
-2.615603	东 线
-2.221548	东 菜
-0.1985774	东 西	-0.4055467
-2.615603	东 走
-1.890131	东 边	-0.1427635
-2.615603	东 那
-1.134336	东 部	-0.1638111
-2.615603	东 靠
-2.221548	东 风	-0.315993
-2.221548	东 ，
-0.578177	丝 %
-0.578177	丝 绸
-1.23139	丢 回
-1.23139	丢 在
-0.3348697	丢 垃	0.258683
-1.23139	丢 掉
-1.23139	丢 ，
-2.268066	两 %	-0.1222151
-2.046208	两 -	0.428826
-2.268066	两 </s>
-2.217256	两 万	-0.1347516
-1.519453	两 三	-0.2744359
-0.558371	两 个	-0.3339713
-2.046208	两 元	-0.7202084
-2.942728	两 八
-1.461461	两 公	-1.117781
-2.046208	两 分	-0.2133816
-2.268066	两 到	-0.537449
-2.942728	两 包
-1.551638	两 千	-0.07045074
-2.942728	两 去
-2.268066	两 圈	-0.163192
-1.711339	两 场	-0.05774537
-1.002823	两 块	-0.355671
-2.046208	两 夜
-1.5864	两 天	-0.0122904
-2.548672	两 头
-2.548672	两 家
-2.548672	两 层	-0.06601238
-2.046208	两 岁	-0.07212503
-1.5864	两 年	-0.2277702
-1.944094	两 座	-0.1358857
-1.5864	两 张	-0.2174736
-2.942728	两 房
-2.217256	两 斤
-1.711339	两 旁	-0.1722285
-1.624188	两 星	-0.8197126
-2.942728	两 晚
-2.942728	两 条
-2.942728	两 杯
-1.762491	两 栋	-0.3923306
-2.548672	两 样
-2.217256	两 次
-2.942728	两 步
-2.942728	两 段
-2.268066	两 毛
-1.5864	两 点	-0.1623568
-2.548672	两 片	-0.355604
-2.942728	两 男
-0.966611	两 百	-0.3467826
-2.268066	两 种
